410 100
president 0.011985237 0.19087175 -0.027799267 -0.35008937 0.5347972 -0.025422 -0.8431282 0.032179832 -0.23236686 0.077320814 -0.40561017 0.23538136 0.020736061 -0.5272071 -0.43030396 0.18921848 -0.40182307 0.18575168 0.33097756 0.59126943 -0.054071434 0.22466631 0.09176258 0.044686526 0.01927204 -0.19544016 -0.06300363 0.15757401 -0.16820453 -0.4999244 -0.17221084 0.10644303 0.17341462 0.27507237 -0.33389628 0.0194786 -0.2625381 0.3418321 -0.12886895 0.5810376 0.34292495 0.1475383 -0.21260206 -0.17387229 0.40994415 0.24215646 0.45992655 -0.25546968 -0.33470237 0.1534066 -0.17346899 -0.44071022 -0.06069116 0.39619455 -0.689189 0.4769003 0.24701315 -0.46262923 0.4100727 -0.34152842 0.36978194 0.48410103 -0.07456467 0.38474956 0.4240111 0.21272789 -0.47970277 0.1813492 0.03241476 -0.081797905 0.22506243 0.0109054595 -0.282779 0.3304339 -0.37488952 0.30919886 0.07154016 -0.3034694 0.08249325 0.5381739 -0.47981045 9.1592834E-4 0.10654692 -0.42286748 0.55663335 -0.031658955 -0.28516233 0.03106246 -0.042376786 0.21277219 -0.15270555 -0.41188133 -0.17125618 -0.39818066 -0.31189698 -0.113492966 -0.053165905 -0.021533778 0.027909527 0.6644694
monk -0.051056508 0.79141825 0.04640233 -0.21288599 0.48336875 0.6525976 -0.62374306 0.007371594 -0.72682625 -0.115096614 -0.5424079 -0.18230295 0.10061398 0.018128207 -0.14152883 -0.31520087 0.24409313 0.081073366 0.57491696 0.39223847 0.27173248 0.3041727 0.829121 0.42673096 -0.09423416 0.56211257 0.044622947 -0.25279734 0.25222793 -0.4863471 0.1480733 -0.18427217 -0.049144037 -0.46603942 -0.4867686 -0.5951673 0.6496156 0.15703738 0.11327077 -0.08653009 0.40477765 -0.114377014 0.67766863 0.11332161 -0.243499 -0.14333782 -0.0056516626 -0.4169068 -0.0023739957 -0.12345081 -0.04646394 -0.49728382 -0.31861416 0.026982043 -0.8229991 0.2319543 -0.1580856 0.3660257 0.518702 -0.13524064 -0.03722267 -0.32818615 -0.050937045 0.072874844 0.078408755 -0.37165198 -0.1715108 0.06008153 -0.48101178 0.31957725 0.3319263 -0.4699156 -0.19611801 -0.113082595 -0.20191798 -0.094784506 -0.17251696 -0.6052698 -0.0456816 -0.011527432 -0.6444107 -0.67339367 -0.16311882 -0.003246075 -0.24163948 -0.016485667 0.3189724 0.07922652 0.14270616 -0.022361742 0.40060863 -0.16161498 0.065853626 0.5098709 -0.66473156 -0.28734532 -0.26620644 -0.10823827 -0.053927664 0.18596973
chance -0.15762673 0.31387028 0.76034665 -0.11012588 0.011407249 0.15236643 -0.23545103 0.03746544 -0.29897866 -0.41256443 -0.3804009 -0.2786011 -0.047766224 -0.6772084 -0.73635864 0.19774012 0.2173784 -0.2544776 0.46958324 -0.18012357 0.2957693 0.63944966 0.17193852 -0.12773679 -0.18049005 0.71728003 -0.22074652 0.64078367 0.13343807 -0.22034259 0.059870344 -0.10995496 -0.18242298 -0.006129461 -0.17692426 -0.36570784 0.16040556 -0.26810917 -0.0964379 -0.14772005 0.17421237 0.1484097 -0.5768541 0.1999604 -0.31635502 0.024215024 0.18260686 -0.28260776 -0.27448615 0.0030644955 0.01620794 0.1356456 0.044048928 -0.10175831 0.37640443 0.21576205 -0.02935563 0.19031951 0.4378236 -0.102738135 0.13177125 -0.016445447 0.0896347 0.123398066 0.003807834 0.3729244 -0.3292252 0.38059857 0.16435847 -0.09081519 0.20665215 0.27578416 0.12100558 0.23924272 -0.6932054 0.37137017 0.36896977 -0.2872621 0.2760274 0.61170894 -0.371355 0.114620924 -0.10226761 -0.281888 0.28243294 -0.56851774 0.08809284 0.37850448 -0.021582406 -0.1001272 0.27741057 -0.2908112 -0.2399347 0.018248864 -0.31618634 0.07849427 0.08875389 0.049323454 0.27165264 -0.02525362
party 0.039962888 -0.013572626 0.47183466 -0.07313523 -0.019472513 0.4457641 -1.2286735 -0.03215719 -0.7102487 -0.41611227 0.16636302 0.12195185 -0.32014495 -0.19142175 0.08256295 0.48457274 0.07763614 -0.12006752 -0.20095274 0.31463555 -0.19063638 0.8353348 0.19761276 -0.17258936 -0.2268646 0.307777 0.06760575 0.3272081 -0.42933992 -0.4197894 -0.06866306 0.3360487 0.27123353 -0.44806919 -0.020089056 -0.13375872 0.11760752 0.08040704 0.06870006 0.04519623 0.6569422 -0.4551702 -0.37972543 0.0757304 0.3714651 0.49592695 0.09940028 0.10701295 -0.2718426 -0.0577257 -0.27383906 -0.302895 -0.06486517 -0.14608264 -0.44723973 0.47803408 0.51249146 -0.3885812 0.18440385 0.27988082 0.04235712 0.023258142 -0.21999575 -0.4100775 0.18507814 0.067936316 -0.22686909 0.12813996 0.46734142 -0.12667614 0.040156715 0.04552467 0.07942792 0.3248781 -0.713188 0.32445797 0.30466285 -0.03708603 0.12794235 0.22708237 -0.4358829 -0.28283465 0.24306634 -0.24622105 0.09677429 0.04444072 -0.632068 -0.24885766 0.23485774 0.003750052 -0.16250722 -0.0905173 -0.31329522 0.15677045 -0.34173664 0.09336876 0.44457304 0.16158529 0.0018351461 0.8475441
psychology -0.82888204 -0.06579246 0.29681894 -0.55705374 0.30038735 -0.17270051 -0.5187968 -0.22132681 -0.3324443 -0.16728544 0.23290522 0.09690266 -0.7351886 -0.17430797 -0.47662008 -0.091411486 -0.11106701 0.26772594 0.85679954 -0.23803309 0.59817225 0.14605986 0.09136086 0.56107694 -0.20344022 0.23057817 0.15060218 0.45127407 0.16766895 -0.32087693 -0.032948405 -0.050615747 -0.09284284 0.16735673 0.16105331 -0.067077056 0.46372074 -0.13477138 0.32094878 -0.31465402 0.3953211 0.4283558 0.4012866 -0.16267289 -0.313022 -0.2478789 0.27725074 0.69117194 -0.27207217 0.34444177 0.05727548 -0.46147203 -0.03614958 -0.7616332 -0.113132596 0.14284942 1.1084641 -0.03482411 0.8876113 -0.31513852 -0.548818 -0.029775266 -0.11721284 -0.83530253 0.13182561 -0.4882702 0.04547895 0.034277078 -0.23978573 0.28950024 0.31626138 0.11653166 -0.27195302 0.13615133 -0.358031 0.6023086 -0.391244 -0.1283433 -0.16699587 0.30174357 0.31914026 0.04667542 0.32135087 -0.24480782 0.5823925 0.028957566 0.02615638 1.0338812 -0.305634 -0.37017953 0.07328352 0.5509844 -0.41816497 -0.05162985 -0.2925626 -0.26660937 -0.4895614 -0.32948625 -0.11894927 0.07683368
government -0.38730735 0.22681257 0.639799 -0.14672595 0.25952893 -0.05137991 -0.5850336 -0.5019685 -0.38109043 0.05489253 -0.20230514 -0.020463021 -0.107665606 -0.11636381 0.13934071 0.3258497 -0.3063578 0.16893297 0.0050236583 0.5593948 0.5066481 0.6788908 0.080966815 -0.32692203 0.008893716 -0.38435432 -0.40067852 -0.13446859 0.071709625 -0.32319224 -0.15265737 -0.48008293 -0.24287854 0.11955481 0.052047696 -0.13029656 -0.43344018 0.20444064 0.033879206 0.2582005 0.3270157 0.19245446 0.3227754 -0.16913213 0.59911925 0.5904949 -0.02693399 -0.0847636 -0.3545182 -0.26418638 0.06152099 -0.0044922973 0.1762805 -0.1848184 -0.012857066 0.13386253 0.29920548 -0.08968629 0.5793828 -0.2277342 0.22991915 0.04441347 -0.027348956 -0.09252981 0.5877322 0.15126342 -0.22896832 0.01606855 0.24163544 -0.1507865 0.25399816 0.15901892 -0.2011011 0.25216565 -0.29063162 0.24532199 0.5045876 -0.08809246 0.010427749 0.231649 -0.298994 -0.17826486 0.32000357 -0.4689584 0.71014106 -0.062526464 -0.07701669 -0.07027441 0.57710505 0.56647027 -0.13913496 0.09495448 -0.1413039 0.36946172 0.119570486 -0.2948574 0.33657798 -0.06546697 -0.14328131 0.42254215
video -0.6847926 0.045046143 0.012141316 -0.18872173 0.22193211 0.39633542 -0.06939669 -0.2917875 -0.16087608 -0.20133792 -0.20083158 0.34583172 0.62411004 0.42539963 -0.13372575 0.11573529 0.8147672 -0.18140589 0.6877324 -0.33180335 -0.027563555 0.34530205 -0.06826357 0.20025656 0.46130753 0.6763773 -0.19249111 -0.051748358 0.050155926 0.16588213 -0.13756105 0.085960925 0.07436918 -0.026619669 0.17227612 -0.22389787 0.025728961 0.01729422 -0.38298842 0.36525717 0.19673139 -0.062399857 0.1848881 -0.60505885 0.07759662 0.038992222 0.48790887 0.05010764 -0.20401222 0.3293787 0.06506473 -0.38445166 -0.008774911 -0.15625046 0.13061321 0.5005624 0.27815706 -0.017105151 0.6163109 -0.47072813 0.16549404 0.23660485 0.10359665 0.35720727 -0.075924866 -0.45826906 -0.092818245 -0.55289674 -0.46030235 -0.53984684 0.1669596 -0.15879239 -0.057569925 0.7586606 -0.20968565 0.57207805 -0.032907717 -0.45328736 -0.33458495 0.30680808 -0.29765838 -0.2350849 -0.008101038 -0.101761125 0.12654254 -0.034791537 -0.035000205 0.50525516 -0.5629752 0.1889618 -0.42677 -0.020434849 0.056764487 0.6330292 0.12174939 0.32869515 -0.21038833 0.039831538 0.29869425 0.15687709
defeating -0.84393865 -0.122133516 0.41798642 -0.40985516 0.6833516 0.4683812 -0.5619081 -0.5919156 -0.81993324 -0.9078957 -0.45389622 0.23565196 0.2565535 -0.5256345 -0.348054 0.23844853 -0.14606938 0.35843918 0.1252821 0.34742433 0.104414485 0.1889798 -0.086840846 0.33569393 0.005365795 -0.08494203 -0.62282205 0.4661303 -0.17317496 -0.091113254 -0.529326 0.1064331 0.09546275 -0.13376679 -0.35988933 0.37709907 -0.17114933 -0.5179328 -0.3925308 0.5483551 0.19273399 -0.33854845 -0.31676432 0.14495058 0.19933663 -0.12370218 0.052748967 -0.28495887 -0.26701373 0.15572833 -0.7672402 -0.053970434 0.3926342 -0.23166743 -0.61940634 0.15523508 -0.7855508 -0.0039342158 0.11807786 0.9401688 0.058551215 0.6741845 0.5605822 0.44629824 0.6410164 0.26518035 -0.3868859 0.29073808 0.0018798441 0.12817034 -0.056220815 0.1858609 0.32181022 0.24402311 -0.480387 0.72436035 0.31271932 -0.6488824 -0.01656526 0.627696 -0.052064367 0.004002564 0.046902757 -0.2803571 0.15893966 -0.11849659 0.14659555 0.71902925 0.064522535 0.39288226 0.05115046 0.280761 -0.27379015 -1.2046825 -0.23844232 -0.1898741 0.48353803 -0.3060007 -0.043385457 0.55020183
death -0.23261195 0.2646371 -0.11317038 7.3673547E-4 0.099608876 -0.054867662 0.18385638 -0.42344865 0.026950845 -0.09417113 -0.12413218 -0.76319253 -0.32401273 -0.19333208 -0.32135156 0.052471705 0.019040538 0.2943041 0.12596762 0.11937501 0.0699871 0.31931403 0.17426331 0.6838921 -0.22681539 0.66768026 -0.46616974 0.060148865 -0.24600646 -0.3152868 -0.4266102 -0.13190317 -0.44974673 -0.08412659 -0.23721127 -0.5190859 0.049574435 -0.046981417 -0.04808523 0.37451717 0.3446896 -0.25194395 0.2972089 -0.1863224 0.12001946 0.014584756 0.14474685 0.16675405 -0.123993196 0.012659954 0.06378326 -0.4071801 0.016777255 -0.09181408 -0.436651 0.78343475 0.03905631 0.17474541 0.26564816 -0.4694522 0.030063383 0.74474823 -0.102864675 -0.2642532 0.0540165 -0.16454466 -0.62588 0.26261035 -0.10425522 0.4252415 0.029024217 -0.033116866 -0.24124135 0.64909834 0.06334972 0.033349775 0.46253932 -0.026819877 0.27869257 0.08270446 -0.5654818 -0.42509487 0.41477728 -0.0446302 0.18650334 -0.16655883 0.007392732 -0.19123554 0.1987392 -0.029638026 -0.50387853 -0.124636985 -0.37537602 0.33150372 -0.45435816 0.2780379 -0.16249454 0.10420659 -0.21770768 0.6622381
image -0.36019674 -0.44611022 0.4807487 -0.5927977 -0.27469808 0.6874284 -0.81192183 -0.2790263 -0.2960134 -0.25845367 -0.46508336 0.061799183 -0.047807112 0.01655417 -0.26711366 -0.3006911 0.32640228 0.121125296 -0.24370113 -0.38054055 -0.32849023 0.17044027 -0.16543515 0.48969564 0.1276661 0.8180348 -0.029910048 -0.33432698 0.23292996 -0.25709537 -0.0790276 0.2114621 -0.06709729 0.073469974 -0.36869022 -0.021981848 0.10959133 0.33235875 -0.110474624 -0.003984215 0.19492742 -0.38032222 0.27205527 -0.3326197 0.12094532 0.06677718 0.22251834 0.08920802 0.1496609 0.25685015 0.09349386 -0.41291928 0.04527204 0.18216725 0.33939695 0.15827328 0.3923794 -0.2705832 0.36743468 -0.17284997 0.44709834 -0.1619825 -0.14290391 0.11936962 0.15859811 0.06553732 -0.21286714 -0.14846249 -0.12777954 -0.24636164 0.2993586 -0.31611675 -0.07053323 0.3001214 -0.23526181 0.16330281 0.4613151 -0.7638044 -0.41073295 0.056041647 0.051683817 -0.12682772 -0.2845301 -0.39392444 0.1408564 0.03188441 -0.039595626 0.04069263 -0.0034533301 0.21972202 0.28162357 0.10064362 -0.48265943 0.26233122 -0.33665052 0.2953103 0.20326057 0.32981926 -0.20024621 0.28526723
number -0.616046 0.19388819 0.23684871 -0.29262382 0.13890427 0.1913444 0.25916964 -0.25650367 -0.30967414 -0.4558944 -0.093452536 0.072973296 -0.1287381 0.25493965 -0.060384233 -0.16618045 -0.16518405 0.49037224 0.029544871 0.31912175 -0.012397296 0.6203871 0.30938607 -0.0031634993 0.16509175 0.32902673 -0.16442487 -0.036589224 -0.020855205 -0.025680598 0.21146978 -0.5890567 0.08979942 0.31271026 0.035443597 -0.30513167 0.33748698 -0.6902833 0.27424508 0.12051106 0.51672816 -0.20534469 -0.008348 -0.2778403 0.010889427 0.11846247 0.44163018 -0.25271824 -0.17469291 -0.21918136 -0.45887643 -0.16435358 -0.043080218 -0.13453041 -0.4321045 0.07176467 -0.3149416 0.15985641 0.33256498 -0.17179829 0.09889107 0.119041815 0.32169542 0.12568851 0.43934384 -0.023607148 -0.23628867 -0.53490835 -0.099213004 -0.08478388 -0.19390488 0.1997024 0.42047277 0.5082716 0.07113155 0.23788986 0.6525892 0.009317428 -0.54035133 0.25150684 -0.14059785 -0.20980482 0.12580703 -0.5120725 0.146495 -0.36158544 0.35543606 0.021627525 -0.041480366 0.08204542 0.06989122 0.04111486 -0.15113631 0.20291367 0.11045958 0.2075484 -0.22180493 0.0888456 -0.03874097 0.14237861
theater -0.6678449 0.5345343 0.26729503 -2.8138616E-5 0.23684724 -0.32862732 -0.03365266 -0.22161856 -0.44492728 0.35901362 -0.36974388 0.0964324 -0.069080725 0.09101881 -0.058561165 0.10829071 0.54229766 -0.16352342 -0.339336 -0.28514737 0.09914736 0.76894027 0.66055745 0.69825095 -0.19039954 0.22835384 0.3434475 0.5966622 0.18471414 -0.19730239 -0.045059904 0.6589224 0.2643395 -0.21164547 0.22208911 0.16501977 0.6247632 -0.29406932 0.5537562 0.18992312 0.49287957 0.2248788 0.43050146 -0.19625919 0.26081908 -0.22352718 -0.12549277 7.6382514E-4 -0.51940554 0.042755276 0.12777224 -0.18882005 -0.08148109 -0.14007424 -0.519924 0.064828105 0.88328636 -0.22723086 0.0056482563 -0.1470932 0.18794121 -0.17123382 -0.2415579 0.44286966 -0.19892837 -0.26497832 -0.42010581 -0.20030145 -0.328919 -0.13880812 0.38508284 0.347724 -0.22769764 0.11504006 0.40580833 0.3755637 0.009382797 -1.0695044 -0.34742162 0.6794944 -0.14486091 -0.3334534 -0.037380215 0.2722774 -0.118271895 0.16622335 0.24900097 0.4077792 0.06145472 -0.026857384 0.23388006 0.07880336 -0.005621673 0.41791734 -0.62768006 -0.09477223 -0.23103353 0.43444565 -0.19229017 0.40199876
astronomer -0.6499911 -0.2301103 0.36562213 -0.7403157 0.36873403 0.34159583 -0.2950755 -0.743797 -0.3003086 0.47288123 -0.3940367 -0.12922466 -0.44466498 -0.3453394 -0.72064275 0.40037298 0.5598476 1.0341722 0.9565254 -0.4073174 -0.24912795 -0.3240251 0.1547282 0.96859044 -0.28419983 -0.34008378 0.2662382 0.18153901 -0.08958448 -1.006434 0.20293836 0.22181796 -0.17131248 -0.2961512 -0.12236533 0.3272097 0.7597603 -0.2844063 0.12720524 -0.070902355 0.46120206 -0.12574887 0.70951045 -0.53098357 -0.33238742 0.090637125 0.22911493 0.15715212 0.24587175 0.21108349 -0.1497427 -0.08485197 -0.47564748 -0.29545736 -0.13512647 0.15237397 0.11282477 -0.0154484315 0.14288056 -0.1689623 0.2210716 -0.10815534 -0.23556717 -0.24807373 0.1401109 0.096508056 -0.6447889 -0.7920229 0.017690027 0.6616464 0.38850293 0.3029191 0.22376692 0.1945441 -0.33672038 0.36922297 -0.60197705 -0.7163377 -0.5715866 0.4575507 0.37269804 -0.59337777 0.055113293 -0.31610385 0.3869285 0.21295346 -0.37046131 0.5288294 -0.4093203 -0.3494156 -0.0880965 0.27620482 3.086602E-5 -0.2587851 -0.9474929 0.4427472 -0.5460734 -0.0019160056 -0.050474934 0.015396284
project -0.65109026 0.423079 0.36260557 0.087117575 -0.085223585 0.5523817 -0.19393054 -0.48846343 -0.27974242 0.049987897 -0.6238736 -0.27992508 -0.049022514 -0.2150474 -0.05907926 0.26525074 -0.21868096 0.15874071 -0.072651304 -0.029477127 0.2491476 0.07754916 0.050836947 0.01410455 -0.09785329 -0.14998278 0.27508354 0.18937182 0.020406695 -0.08020352 -0.2719958 0.12220354 -0.332283 0.03352686 0.39623 0.080825604 -0.29180545 0.2582684 0.40924075 -0.28818622 0.15466619 -0.0499839 0.07490853 -0.4326996 0.14500356 0.28424144 -0.07497662 -0.0896378 -0.5894058 0.3340799 0.29429045 -0.060116936 0.020539952 -0.4119452 -0.4646318 -0.012744967 0.13985191 0.11492704 0.0073628435 -0.48053402 0.15555292 0.08549635 -0.015257834 0.1440577 0.2482924 0.38534173 0.050970048 -0.25110078 0.5818247 -0.38784066 0.5203119 0.04551031 0.07927542 0.05494279 -0.008936282 0.7269534 -0.30184346 -0.46236196 -0.2823388 0.94889796 0.14123686 -0.44897163 -0.20204756 -0.21568546 0.26101616 0.2863095 -0.09701454 0.35506186 -0.07781579 0.41875276 0.024453653 0.09073494 -0.3083463 0.3166467 -0.58749497 0.21508005 -0.034696482 -0.15067242 -0.23367393 -0.09976716
dawn -0.6748126 -0.23825783 1.0654104 -0.4793164 -0.027416768 0.41844037 -0.14027499 0.6609928 -0.42694256 0.46552017 -0.45176813 -0.28011838 -0.14952047 -0.0019109121 -0.21950267 0.15732716 -0.22752243 -0.13832606 0.47490215 0.46055484 0.022555726 0.34929344 0.27362564 0.36416537 -0.4452797 0.08382379 -0.22121039 -0.0992626 -0.16885768 -0.4508317 0.1264539 0.21727428 0.4512228 -0.31719857 0.17421485 0.45436853 -0.10322678 -0.20700473 -0.3933863 0.09424389 0.5563003 -0.008580383 0.33042595 -0.1354198 0.70368236 0.008410576 -0.19890384 -0.00885809 -0.13735451 0.22088544 0.076875664 -0.61438006 -0.39595208 -0.22652058 -0.27160493 0.17097083 -0.19031766 0.17444564 0.13534676 -0.2902284 0.46183378 -0.025623057 0.3873931 0.057927027 0.054922506 -0.064221136 -0.2160569 0.31950748 -0.20239608 -0.014795033 0.054069586 0.12627277 -0.020448232 0.10210984 0.032896176 0.016870424 -0.01926209 -0.65360796 0.30224937 0.07835092 -0.75270116 -0.4944417 0.039867006 -0.07826353 -0.12652649 0.100407764 -0.22273317 0.10872645 -0.17603803 0.3353975 -0.0732865 -0.33419546 -0.2548246 0.51974404 -0.34043038 0.017298687 -0.3512891 0.334226 0.22682373 0.10584377
ear -0.52151257 0.47264084 0.35511824 -0.2658259 0.22277059 0.26873457 -0.34010765 -0.35870615 -0.03744894 0.16112696 -0.06942314 -0.13754977 -0.3110693 -0.3753654 -0.20385765 -0.35286835 0.36013982 0.39898083 0.21569523 -0.56530094 0.27624986 0.7887968 0.338297 0.3912696 0.07418519 0.78448594 -0.0625543 -0.16401823 0.35348043 -0.13593386 0.0955757 0.17838491 -0.49584842 -0.3816311 -0.22429414 0.0759186 0.28569514 0.20135659 -0.17265916 -0.008607855 0.45067537 -0.16718252 -0.051838033 -0.46079838 -0.7624294 -0.21682945 0.71014786 0.51541626 -0.2835884 0.17661193 -0.47910684 -0.27785522 -0.23992509 -0.16704993 -0.0905393 0.37032107 0.15571208 -0.33471987 0.10687282 -0.20602821 -0.2654149 0.13675517 0.093148634 -0.11490517 0.12969637 0.16488044 -0.4728797 -0.84695864 0.19268912 0.11330941 -0.047365904 -0.45443198 0.13773356 0.36398125 0.006558623 -0.20148934 0.4780874 -0.2906356 0.2420066 -0.1843865 -1.012729 0.14727978 -0.04910623 -0.42021626 -0.22657241 -0.1775725 -0.1353169 -0.1776868 0.009928026 0.06765977 -0.11468842 0.50367564 -0.036680304 0.8709035 -0.39765513 -0.012183479 -0.17436855 0.13590428 0.03515689 -0.21267138
voyage -0.6675955 -0.10598616 0.35146162 -0.36279154 0.51334584 0.10259749 0.31205744 -0.45489702 -0.4793609 0.35761335 0.30981696 -0.7453546 0.46209195 -0.2790173 -0.4895261 -0.06349641 -0.19194305 -0.118225396 0.3890578 0.061463576 -0.32393578 -0.29017174 0.6219108 0.80208856 -0.5670596 0.28963515 0.94090575 0.011358081 -0.24512811 -0.7016141 -0.02371387 0.3166236 0.022019986 -0.5255033 -0.38612053 0.1408243 0.019531187 -0.1521431 0.29398257 -0.4769741 0.65528756 0.19390966 0.5921755 -0.26527682 0.7462177 0.120827064 0.47688994 -0.42257333 -0.12823376 -0.43195787 -0.42859414 0.42238802 0.35470405 -0.26728526 0.041037753 0.265547 0.109863 0.3374053 -0.010060129 -0.12012786 0.16300753 0.005311987 0.21980534 0.40290678 0.13037212 -0.046211783 -0.43107727 0.026315158 -0.58311677 0.048841737 0.32638785 -0.089069076 0.1205566 -0.02206888 -0.033131268 0.42084682 -0.5090776 -0.87529135 -0.38592938 0.8803785 -0.3643016 -0.7298571 0.6223039 -0.3631267 -0.19563377 0.2128516 -0.5332475 0.16046815 -0.287109 0.10986714 0.16058962 0.60240954 -0.027278695 0.13859329 -0.78595895 0.11848281 0.48308215 0.2998424 -0.104336806 -0.8553405
valor -0.54582065 0.18131824 0.47200048 -0.17999335 0.407897 -0.113459624 -0.55141467 -0.7078634 -0.49854863 -0.53102374 0.1730112 -0.09004961 0.7230197 -0.57871747 -0.12850642 -0.008662999 -0.20438348 0.2778608 0.065684564 0.4619357 -0.006070461 -0.39052603 0.07983967 0.11340342 0.47842667 0.89625543 -0.2796312 -0.29121047 -0.06503644 0.16204077 0.2796873 -0.09486782 0.036672637 0.18460882 0.10454826 0.04200685 -0.49774894 -0.44899526 0.09957199 -0.05451295 0.060507223 0.099883564 0.18898232 -0.18912467 0.3723711 0.10788477 -0.09633501 -0.25959626 -0.1692163 -0.2971871 0.38195997 -0.17660925 -0.17234144 -0.23319349 -0.42816848 0.81265396 0.3594767 -0.08712968 0.36543268 -0.13525443 0.56390125 0.17725994 -0.11991453 0.087982975 0.38634804 -0.13514814 -0.058587357 0.6006124 -0.5894762 0.4386369 0.10292493 0.12363812 0.044191726 0.2727611 -0.084019646 0.34118053 -0.14400041 -0.70114326 -0.35831273 0.42742416 -0.22198023 0.10921559 0.44438574 -0.88291436 -0.24721956 -0.22786915 -0.18427564 -0.04820567 0.40939578 -0.22392474 0.36112034 -0.39492846 0.20491852 0.28941151 -0.79668677 -0.23851243 -0.21204135 0.07613146 0.19756645 0.6357024
butter 0.22189172 0.676457 1.1559508 0.07539473 -0.11035137 0.08179537 -0.32569137 -0.08530602 -0.25210613 0.6248841 -0.018673975 0.0927897 -0.07101091 0.030983126 -0.50829726 0.06082542 -0.41033018 -0.46633118 0.43414077 0.15771273 0.14482461 -0.15110178 0.9469303 1.1520694 0.17035626 0.67825866 -0.1030418 0.22370383 -0.14139499 -0.24891989 0.3599477 0.18096897 -0.10708289 -0.16238917 -0.17915554 0.43287137 0.5164858 -0.06273297 -0.2600102 0.14044441 0.62542343 0.016129917 -0.018144095 0.012978945 -0.58060956 -0.30764428 0.046369027 0.40796122 0.27027932 0.44738013 0.13754232 0.1130547 0.44364876 -0.18489705 0.013019264 -0.14837901 0.19916256 -0.07434703 0.7504568 -0.73024446 -0.60248226 -0.05534888 0.11275468 0.44618917 0.3429105 -0.07788473 -0.3842468 -0.5952961 -0.8038211 -0.55116576 0.1950645 -0.22256657 -0.52858734 -0.1206479 -0.4122245 -0.108758405 0.124185234 -0.46825257 -0.098762564 0.5711519 -0.49614263 0.10745946 -0.16160108 -0.7969291 0.20389885 -0.10512357 -0.80047804 -0.28609315 0.61525077 0.0032726682 0.2746054 0.84480095 -0.08112693 0.18045335 -0.3840124 0.12545267 0.7133124 0.16992274 0.576866 -0.20333196
gin -0.5731457 0.3774061 0.32298002 -0.32006222 -0.28122988 0.14490427 0.18622155 -0.107192315 -0.25490597 -0.025766898 0.5738454 -0.07409754 -0.14461404 -0.50751245 -0.1462278 0.23147793 0.2214891 -0.2565679 0.23425484 -0.018102974 0.20546028 0.20699573 0.5825706 0.87883323 -0.3787324 0.5072761 -0.18905051 0.41847613 -0.57604986 -0.15193589 -0.021377262 0.7103864 0.15499626 -0.2707438 0.29404625 0.44980466 -0.13469549 -0.13611434 0.34860015 0.1249761 0.37842172 0.05749989 -0.036949594 0.0032580725 -0.36626923 -0.63917154 0.21408348 0.37448642 0.084964804 0.30668318 -0.21660656 -0.049371134 -0.5518385 0.12586524 -0.33604166 -0.22411153 0.3683365 -0.5643138 0.5470442 -0.35161453 -0.2951418 -0.16687517 0.057065345 0.266788 -0.050525527 -0.043717023 -0.068387315 -0.33659172 -0.5116768 -0.36993277 0.4222186 0.17919849 -0.14986363 -0.2129091 -0.5833736 0.5156031 -0.012818138 -0.588674 0.18895698 0.24874672 -0.49116197 0.05800099 -0.4182245 -0.5036094 0.109499484 -0.5117248 -0.6660421 -0.055711128 0.80985963 0.4217154 0.75728226 -0.1900982 -0.31297734 0.5566495 -0.3292446 -0.046512954 0.28213808 -0.021083849 0.52813566 -0.056733552
reservation -0.4796986 0.004208202 0.058091577 -0.36134046 0.043169733 0.33074525 0.48745918 -0.043266598 -0.21138778 -0.5078388 0.6141681 -0.045742676 -0.25860378 0.04783615 0.42576224 -0.08896316 0.13402623 0.2885294 6.5036846E-4 0.42474294 -0.041891262 0.10477166 0.66489744 -0.15342097 0.10843619 0.52387077 -0.08353483 -0.14035529 -0.62699693 -0.50431377 -0.33979738 0.05002876 0.09631242 0.29478654 0.3169145 0.6502712 -0.14453822 -0.086907506 0.36643577 -0.40429097 0.39445373 -0.011149626 0.09858179 -0.08534877 0.26628193 0.11373578 0.44781667 -0.3793644 -0.8184906 0.09570392 0.0050717504 -0.21647891 -0.22472559 -0.27325803 -0.027445024 -0.021585751 0.52974445 0.027564876 0.14423601 -1.0601175 0.32484046 -0.4192164 0.529098 0.43444142 0.10457762 0.23449846 -0.93816465 -0.0893232 -0.28050956 -0.4073367 -0.016217658 0.06428662 0.1513435 -0.19708757 -0.5879217 -0.21541975 -0.2123134 -0.29946274 0.051103115 0.46885347 -0.17689745 -0.076013476 0.20732662 -0.37903216 -0.23250467 -0.1828528 -0.19486175 0.09640938 -0.36744493 0.2667126 -0.38427916 0.6164461 -0.56455785 0.22290333 -0.6877367 0.13741593 0.13822326 0.0751196 -0.22206408 -0.3462018
wealth -0.46589708 -0.0018555037 0.23120594 -0.6365906 -0.08449562 0.3073907 -0.37221006 -0.9145722 0.053220443 -0.5393636 -0.057012066 0.21816556 -0.021060547 -0.8926919 -0.34292567 -0.0059783943 -0.24825983 -0.24846284 0.37177393 0.46892467 -0.052524216 0.10157162 0.026416762 -0.25139797 -0.55556107 -0.23018314 -0.4993451 -0.12668645 -0.08538264 0.10335137 -0.011079603 -0.44267452 -0.4614296 0.030730018 -0.07483365 -0.26746166 0.32334432 0.10599288 -0.35234657 0.19219424 0.30363852 0.29398295 0.50753576 -0.09309846 0.37222952 0.10051606 0.29183736 0.44079852 0.1823249 -0.0664396 0.29619297 -0.08682452 0.2576492 0.017041408 -0.4955197 -0.31246322 0.81255764 -0.18692665 0.23813401 -0.43835297 0.39588857 -0.14288685 -0.33995163 0.17146014 -0.054755807 0.27788606 -0.07741944 -0.59745437 -9.0862304E-4 -0.35281387 0.16060944 0.28171414 -0.03970223 0.21149968 -0.17633478 0.5453105 0.15033504 -0.27557203 -0.20184125 0.63885814 0.22270574 0.16095598 -0.057082202 -0.7357152 -0.4048549 -0.030526608 -0.26891467 0.24619769 0.49598053 0.268086 0.20219749 0.5237033 -0.86131734 -0.05587831 -0.051801912 1.13485905E-4 0.3204749 -0.00719007 -0.05961885 0.27657872
eat 0.25420702 0.49120054 1.2033869 0.11182664 -0.2734053 0.063496396 -0.42435667 -0.25135773 -0.5467892 0.121831864 -0.23096734 0.25223514 -0.12355992 -0.297573 -0.40250957 -0.08903933 -0.139075 -0.16245803 -0.2678549 0.022950083 0.6419104 0.31843257 0.94410807 0.5572336 0.16006011 0.5027414 0.16641167 0.07347989 0.018044058 -0.30677614 -0.31067953 0.049238537 -0.26296055 -0.124825425 -0.0035864443 -0.2781211 0.4212202 -0.1220176 0.15252204 -0.23793621 0.80280924 0.5807457 -0.19825716 -0.24587463 -0.14036745 -0.19408266 0.2563406 0.56842893 0.16476823 0.4650001 0.16229327 -0.19018868 -0.41204295 -0.0453121 0.4329909 0.17027445 0.40745655 0.53755045 0.6246238 -0.534675 0.27192494 -0.18544681 0.5333033 0.10686638 -0.019475609 -0.33137718 -0.50864124 -0.3185197 -0.43967235 -0.11349398 -0.42523545 0.026336027 -0.29971552 0.24751833 -0.49649638 0.04371193 0.009271258 -0.32625347 -0.48903072 0.22322077 -0.4381572 -0.11440296 0.21589868 -0.413922 0.3328388 -0.62638736 -0.36710608 -0.6623593 0.11133497 -0.006125818 0.35372847 0.24161711 -0.6107915 0.49012032 0.12691127 0.07184135 0.2568204 0.106274135 0.4073797 -0.22824214
soap -0.4825412 -0.30556664 0.733905 -0.308193 -0.15114596 -0.29643098 -0.04968134 0.18625267 -0.08825821 -0.14280218 -0.38903254 0.049552575 -0.53418696 0.06487656 -0.4367347 0.30938607 0.4257438 0.21199262 0.036840804 0.4946599 0.3930032 0.25308937 0.35180673 0.5573214 0.007353415 1.097175 -0.09020167 0.14575078 -0.34059307 -0.22055271 0.18785581 -0.0014741346 -0.32364768 0.16719142 0.0284643 -0.51219386 0.26289168 -0.04228771 -0.096186794 -0.2134119 0.60894233 -0.15042849 0.18738087 -0.20409285 -0.21235766 -0.16959365 -0.3246387 -0.11810477 0.60222197 0.0142333135 -0.31009728 -0.112614386 -0.100353986 0.3124648 -0.19906177 -0.33592692 0.55282146 -0.4937452 0.33430335 -0.13467391 0.37129748 -0.122116156 0.042674083 0.12893908 0.41358516 -0.44434446 -0.74083275 -0.4906775 -0.89795154 -0.056791063 0.076646 0.19127482 -0.4814438 0.5929136 -0.3342716 -0.04714158 0.09365128 -0.5816966 -0.39866695 0.4035189 -0.18275294 -0.42012691 0.25727376 0.4537943 0.27835616 -0.3389467 -0.47105658 0.10518697 0.076485716 0.8178488 0.23319481 -0.09366664 0.06825045 0.6106987 -0.15153699 -0.2590604 0.7582002 0.0959617 0.24863853 -0.40970182
discovery -0.46198308 0.19411442 0.72998357 -0.2198603 -0.031788614 0.2522241 -0.010578326 -0.1390833 0.11982011 0.33961287 0.06571949 -0.6452085 -0.239689 0.11487929 -0.78388584 0.27052987 0.2942911 0.19660835 0.23944266 -2.2696582E-5 -0.3467136 -0.06901403 0.0868848 0.5758629 3.9877446E-4 -0.044195496 0.2593403 0.0980826 -0.16193493 -0.19977707 -0.1769622 0.3317746 -0.16037236 0.020854695 0.01864308 -0.074478775 -0.075804144 -0.330921 -0.01010666 0.024805713 0.2660663 0.24887264 0.8428012 -0.5051438 0.2744464 0.20436694 0.09785692 0.09350704 -0.46503875 0.40946957 -0.0010607084 0.6107116 0.112387076 -0.28497502 -0.20206465 0.51850015 0.31061536 0.23180048 0.3812507 -0.624069 0.15739174 0.40210524 -0.1236343 -0.09431842 0.30040485 0.22379833 -0.12322121 -0.34448376 -0.13216294 -0.3109147 0.03323683 0.24050224 -0.083247565 0.32104304 -0.19036286 0.7247221 -0.16331807 -0.47715244 -0.72847277 0.3086511 -0.15727042 -0.39189732 0.20569874 -0.15214573 0.57992417 0.30324826 0.11703945 -0.21313567 -0.42415726 -0.1304762 0.33233005 0.27699894 -0.6866751 0.14305744 -0.49804005 0.19261222 0.3078118 0.029281573 -0.5031688 -0.33717737
hospital -0.754686 0.56471425 0.5304811 -0.22972843 0.66379356 0.104805395 -0.2221641 -0.32473204 0.22257517 0.6415101 0.13280451 -0.4824141 -0.8301957 -0.29132906 -0.50280225 -0.06248926 -0.27856615 0.27516475 0.26768395 -0.010651543 -0.23636915 0.36388582 0.29461575 0.43581596 0.26143485 0.8528501 -0.31666574 0.011338663 -0.48186287 -0.16266501 -0.54948336 -0.42942938 -0.26731285 -0.0041566435 0.07153472 -0.14328952 -0.23602086 -0.12776722 -0.07621715 -0.24165004 -0.08888034 0.18167786 -0.18017988 -0.27179 0.20276737 0.63366973 0.052533805 0.4630265 0.1498929 -0.2955912 0.051489297 -0.06570144 -0.27317318 -0.037984595 -0.5673069 0.24596 0.18554261 0.33154854 0.24229638 0.033315152 0.25059724 0.13696088 0.54945236 -0.025482634 0.079067186 0.20699507 -0.8197984 -0.33686882 -0.04797636 0.19540362 -0.13621363 -0.5717717 -0.34880242 0.041681707 -0.36276197 -0.044496108 0.70310944 -0.15861727 -0.40993434 0.41035587 -0.37715757 -0.34058177 -0.5025034 0.05698304 0.21104774 -0.13677363 0.47669423 0.09825103 -0.11682656 0.10836201 -0.345786 0.0051404964 -0.2576225 0.85025537 -0.23242986 0.33509508 -0.11943683 -0.41704154 -0.3441641 0.5153807
computer -0.72666776 -0.2457193 0.45610967 -0.23120566 0.2547047 0.29014316 -0.2008915 -0.6381576 -0.10792912 -0.11580052 0.07398581 0.35303384 -0.029489463 0.09172214 -0.012653783 0.016722724 0.44012606 -0.039759114 0.50408655 -0.7821838 -0.22229597 -0.0073670303 0.38220507 0.22816516 0.45630687 0.36326295 0.07920337 -0.027014641 0.33983523 -0.5528911 0.33422366 -0.017895482 -0.31740704 0.018040428 0.39903536 -0.5484835 0.30370548 -0.06252986 -0.29119062 0.06148983 0.34799868 -0.19902597 0.7050565 -0.5045172 -0.04579803 0.42763892 0.32992062 -0.10067397 0.083672754 -0.052430116 -0.17298792 -0.4375188 0.057486333 -0.64856255 -0.0024600264 -0.07389576 0.3819808 -0.2515616 0.43037102 -0.6570437 -0.109506354 -0.2704976 0.07998305 0.062220875 0.11450183 -0.18984006 -0.16442819 -0.47268632 -0.19764465 -0.19350187 0.17842105 -0.37992007 0.1734899 0.66331357 -0.37955624 0.6089011 -0.1550396 -0.43120766 -0.36838222 -8.8914233E-4 -0.5507616 -0.44866318 0.26597717 -0.2116528 0.120684646 0.026152475 -0.46544635 0.42929184 -0.70477176 0.65646285 0.12727138 0.31301227 0.28490302 0.44394687 0.25915164 0.35859075 -0.22676787 -0.26260808 -0.0791621 -0.23062868
queen -0.44139153 0.053721983 0.23222877 -0.04397137 0.09931007 -0.07702823 -0.2273205 -0.042885482 -0.24446496 0.3250221 -0.11025495 -0.44501898 -0.49151534 -0.6642847 -0.4024835 0.25497326 0.3898815 0.019369794 0.05970577 0.42619073 -0.07164463 0.03826799 0.85249114 0.6434463 -0.1867029 0.77058256 -0.04720273 -0.009736374 -0.61893684 0.005897675 0.030418389 -0.32549694 0.47327977 -0.23477367 -0.51953506 0.06618969 -0.3969537 -0.13329539 -0.24410264 -0.19129254 0.8103891 -0.6235767 -0.22566077 -0.13977437 0.5312537 -0.030987538 0.19046056 0.3016181 -0.018152859 0.009943474 -0.22335996 -0.1219098 -0.7038949 0.24668479 -0.10921624 0.1905445 0.5795628 0.3539457 0.29329857 0.060665563 0.15922739 0.2699778 0.39621046 -0.03882448 -0.012095128 0.082026474 -0.2890022 -0.7088806 -0.26586574 0.14522883 0.16731 0.3444975 0.0795035 0.5607948 -0.24688628 -0.13391376 -0.1427456 -0.61112237 0.067661986 0.36282957 -0.27875778 -0.43369773 0.1447046 -0.19480892 0.028261386 -0.1384483 -0.03930615 0.47804958 0.44409218 -0.038529523 0.12013723 0.013089194 0.1939001 0.018878983 -0.9202638 0.0088015245 -0.33621866 -0.11294205 0.4572911 0.45674264
wizard -0.39131278 0.49304843 0.33171973 -0.074212976 -0.012694235 0.24632932 0.08758169 -0.12397466 -0.48175225 0.15149403 -0.5552383 -0.15016405 -0.25025558 0.32194814 -0.0039431453 0.35033303 0.61848885 -0.61630404 0.6844174 -0.70584786 0.4259698 -0.24918756 0.06323953 0.67688745 -0.14366361 0.1434839 -0.29002568 0.2820484 -0.2540747 -0.15096134 0.41031215 0.24859113 -0.24336593 -0.22362794 0.111632615 0.16225466 0.63844687 -0.81112564 0.038877048 -0.3650056 0.8931699 -0.34199744 0.27506956 -0.5573292 0.13013025 -0.5256415 -0.0021560625 0.42773482 -0.35397014 -0.0968649 0.40888137 -0.32007286 -0.6417686 0.074450694 -0.12709211 -0.33797947 0.8671745 -0.4644067 0.48828226 0.308847 0.34179828 0.015569659 -0.11615551 0.43558753 0.13943717 0.024075411 -0.5884105 -0.42253104 -0.05445206 0.59029526 0.6366759 -0.34557876 -0.36491448 0.8610364 -0.37270766 0.17455323 0.21723479 -0.6356051 -0.23545325 0.47514507 -0.23434381 0.162833 0.73063856 -0.66479 0.60333097 0.2524858 0.27119648 0.49692723 0.25216022 0.32166675 -0.1411223 -0.10184605 0.13779278 0.3324049 -0.65953565 0.33350387 -0.31145284 -0.039722048 0.13521256 0.011169887
oil -0.1537423 0.44786164 0.7101584 -0.19257468 -0.02570702 -0.05913522 0.3344658 -0.50694686 0.3648397 0.46761808 -0.11776868 -0.41368368 0.103335924 -0.41896597 -0.5771765 0.37320954 -0.32079825 -0.2762135 0.006648413 1.0927339 0.31316414 0.8429975 0.4341229 -0.2476729 -0.47151178 -0.14343792 0.2564258 0.31370977 -0.27605385 0.07033244 -0.07973391 -0.2652433 -0.20728244 -0.10768098 0.67431974 0.24444807 -0.3356761 -0.22607255 0.3655117 0.65290344 0.09562916 -0.09108077 0.4475324 -0.18888779 0.47462878 -0.15391122 -0.116774514 0.34337673 0.18533853 0.33286956 0.41683194 0.15036544 0.34870952 0.17148896 -0.45400625 0.24464577 0.26681182 -0.18306601 0.62169033 -0.98862934 0.097425744 2.156331E-5 0.15447617 0.08521294 0.23782064 -0.052338816 -0.4575362 -0.44458765 0.32456866 -0.43533972 0.1621972 0.30482525 0.10786487 0.3292886 -0.01693828 0.5145736 0.44773838 -0.057709787 -0.39056042 0.38019228 0.16048813 0.11664338 -0.123183385 -0.76843405 0.1761656 0.51914394 -0.6693694 -0.1120724 0.42415377 0.23202063 0.5247343 0.48574004 -0.14248121 0.11314104 -0.26705593 -0.61921716 0.1671476 0.4590736 0.4829824 0.2006251
currency -0.033468958 0.08024238 0.120748594 -0.017646832 0.5350938 -0.13375151 -0.6295456 -0.23395224 -0.055539522 -0.36400518 0.39652526 -0.037891548 0.3539401 -0.77139246 -0.2049862 -0.2571176 -0.53518546 -0.14970914 -0.20510158 0.27642593 0.19901222 0.40538967 -0.1381876 -0.34470898 -0.27705216 0.1930267 -0.079887785 0.11808637 0.17899401 -0.6489072 0.28424487 -0.16799453 -0.10328321 0.05178317 0.37472925 0.18544672 -0.013718519 0.28396142 0.120794415 0.8181638 0.507198 -0.31679568 0.23585854 -0.7190893 0.39202103 0.5805411 0.37117624 0.44414425 -0.36952564 -0.49845526 -0.017393364 0.23386075 0.05140813 -0.379581 -0.30354968 0.7257338 0.74399924 -0.080898516 0.58934116 -0.3360511 0.6150849 -0.50194156 -0.09778964 0.47537774 0.4857998 0.4461996 -0.6059367 0.040485926 -0.3165829 -0.31986555 -0.0135117285 0.083591476 -0.65844953 -0.011171397 0.14939626 0.36756888 0.7632924 -0.22007908 -0.6094482 0.08660798 -0.3067243 0.26929143 0.30622032 -1.1630304 0.071447924 0.11625403 -0.67682743 0.51156116 0.28603432 0.1978758 0.4759617 1.0627377 0.08358902 -0.4010513 0.53988075 -0.33416957 -0.11225078 -0.11606861 0.19545178 0.006634754
laundering -0.5449987 -0.2162763 0.24712512 0.008678339 -0.2979733 -0.47261629 -0.31677762 -0.96966153 -0.44743553 0.35523295 0.61222875 -0.5460138 0.31643602 0.012950108 -0.37369296 0.26223665 -0.5247517 0.32788458 0.05557871 0.19621606 0.04349507 0.061197538 -0.96412235 -0.4724793 0.42301702 0.4041847 -0.67282706 -0.102014944 -0.38358036 0.1421951 -0.37901163 -0.18299836 -0.4830089 -0.2594137 0.1519337 -0.1299097 -0.7195987 0.19329557 0.30717355 0.04006212 1.2365026 0.08452357 0.33602282 -0.39800763 0.45469776 -0.066638306 0.12865151 0.6392558 0.19463871 -0.15525389 -0.23960282 -0.14150219 -0.1612863 -0.42755762 -0.9384991 0.91518366 0.09752482 -0.2508277 -0.38371128 0.25648832 -0.13741967 -0.6297585 -0.2898924 0.99711126 0.56104183 0.0054482473 0.2462523 0.3002685 -0.32506305 -0.269504 1.430431E-4 0.42270532 -0.8883696 0.35612315 -0.98008704 0.44873166 0.3725342 -0.6869615 -0.7454049 0.4721484 -0.2570268 -0.052843884 0.4265625 -0.27099985 0.015466624 0.023378907 -0.66805995 0.17533858 0.3779054 1.3967828 0.024041332 0.33015358 -0.39671892 -0.21276602 -0.45447922 -0.33487797 0.40732613 -0.39985642 -0.044674706 0.65722877
midday 0.17055936 -0.12562783 0.44648892 -0.31892622 0.37000975 0.30414674 0.27401894 -0.12939718 0.25659677 0.7230052 0.0392881 -1.1049745 0.53916454 -0.3626205 -0.081048824 0.31854242 -0.46677563 0.2669121 0.10707137 0.36848378 -0.15837783 0.9326888 0.41380128 0.092017084 -0.5142374 0.42105794 -0.33881396 0.056305416 0.0054042265 -0.20782171 0.27821788 0.16573413 0.17240569 -0.31703755 0.6099461 -0.22584572 0.14088176 -0.10803339 -0.55579627 0.6078411 0.60151523 0.13518775 0.1244507 -0.22673301 0.40264332 0.16917323 -0.21477199 0.347295 0.47777852 0.70395225 0.16619708 -0.23826624 -0.25121734 -0.3906641 -0.43425018 -0.08564623 -0.11619539 0.20059827 0.43958193 -0.47908106 -0.04252111 -0.024544133 0.4307332 0.11678386 0.069624476 -0.50665313 -0.5398622 0.17247087 0.3607508 -0.07431914 0.010662739 -0.05827009 0.101918675 -0.37552276 0.045213692 0.2615395 0.4375198 -0.29369244 0.038316283 0.7371544 0.08758394 -0.34632465 0.22530809 -0.73773074 0.49157667 -0.77261543 0.024437591 -0.14555116 -0.2128966 0.29353544 0.080060504 0.95086783 0.23272711 1.0675796 0.3477798 0.1364996 -0.3488765 0.6141916 -0.07137353 0.39271474
man -0.5144176 -0.28617224 0.5004569 -0.17685813 0.038291726 0.12639984 0.021261355 -0.69991064 -0.15375243 -0.060596675 -0.047556374 -0.24404527 -0.20805308 -0.287292 -0.35955268 0.16527382 0.017800996 0.096215785 0.33174604 0.01283415 -0.048735112 0.10936348 0.3286208 0.22567116 -0.051502835 0.6205172 -0.26264957 -0.12200655 -0.033622112 -0.286232 -0.34618795 0.10039155 -0.39929736 -0.17362273 0.072636105 -0.100640476 -0.1668229 -0.32037422 -0.1476063 -0.3092813 0.481642 -0.19940911 0.13554183 0.18812367 0.2933365 -0.13209201 -0.12964784 0.41351378 -0.06341413 -0.014238438 0.04447005 -0.53081846 -0.20907073 0.363742 -0.31698245 0.08420232 -0.17828834 0.014148887 0.5325545 -0.18094622 -0.118849285 -0.5409148 -0.3017855 0.46446016 -0.29411417 0.022141593 -0.23957448 0.30927143 -0.51925516 0.06631779 0.11677664 -0.13499887 -0.3299588 0.7608426 -0.3205457 0.197326 0.13638902 -0.8223027 -0.002218991 0.20231195 -0.52429324 0.1838169 -0.29713666 -0.21942568 -0.046809256 -0.30541065 -0.05438686 -0.34329456 -0.051267974 0.31435436 0.009034433 -0.15613288 -0.14526504 0.22384259 -0.671334 0.11898277 -0.29601818 -0.012732089 -0.21240865 0.39778242
keyboard -0.81751347 -0.095820256 0.19289267 -0.3523569 -0.110524766 0.6439225 -0.034412306 -0.425831 -0.21491623 -0.40964592 0.38376695 0.6266508 -0.6658706 -0.069516584 -0.10903773 -0.2772914 0.4540432 -0.17217755 0.4241432 -0.5036623 0.24511404 0.11266224 0.97216845 0.02455117 0.3330994 0.6187781 0.010117886 -0.27233952 0.105210684 -0.24693108 0.81173444 0.8433978 -0.1867571 0.44835356 0.45065957 0.0317246 0.7456007 0.14361389 -0.2551235 -0.08348337 0.47837257 -0.714069 0.42237312 -0.7691451 -0.52262974 0.03139708 0.60120785 -0.34676388 0.14201392 0.44512326 -0.62699014 -0.5137911 -0.07089364 -0.91220486 0.16266166 0.41784588 0.06823511 -0.4676247 0.31856376 -0.60252154 0.46164408 -0.027966293 4.5657755E-4 -0.3095346 -0.1702294 -0.18213917 -0.59528416 -0.55401427 -0.5581518 -0.02363933 0.77027595 -0.9981229 0.14710234 0.27548563 -0.30114707 0.13345748 0.25857723 -0.5143 -0.40146694 0.4105217 -0.39713046 -0.18197091 -0.34886792 -0.72943723 -0.34711856 -0.34391478 -0.3791099 0.34172222 -0.2971144 0.08533852 0.24333346 0.526587 0.6673326 0.93547183 0.11100297 -0.07692846 0.2662138 0.4185866 0.06523498 -0.21667595
announcement -0.035656463 0.17448612 0.23924337 -0.35340557 0.57306266 0.49256915 -0.4565082 -0.03293971 0.25640664 0.2845207 -0.12983704 -0.2347332 -0.41566795 -0.36524972 -0.036949106 0.17500177 0.21115051 0.3820534 0.25360647 0.09457231 -0.06552044 1.0816526 0.055414245 -0.26766863 -0.07591351 0.37902692 0.3890739 -0.33715743 0.15587796 -0.54215115 0.37708828 -0.21129468 -0.067053154 0.2726808 -0.2223011 0.15166432 -0.7797281 0.11795314 -0.13934276 0.13289772 0.70300186 -0.14061756 -0.11059266 0.046543412 0.67056376 0.25100955 -0.12668774 -0.34532553 -0.40109432 0.70497966 0.21790543 0.2656496 0.11997059 -0.3762398 -0.34253877 0.23088008 0.38188007 0.17563283 0.36837977 -5.854026E-4 0.19107203 0.23234138 -0.2854026 -0.21177576 0.32843903 0.11987464 -0.10527444 0.12460962 -0.10541081 -0.3678693 0.58052176 0.12359011 0.04290322 0.22884914 -0.21029492 0.44917375 0.27168086 -0.17614073 0.076399796 0.3274492 0.008804735 0.13225721 0.10308164 -0.4470739 0.53686893 0.03514154 0.38351125 0.3504713 0.021275185 0.67857206 -0.301402 0.14890487 -0.27218363 0.15362534 -0.047543615 -0.26917323 -0.21205163 0.08004659 -0.123234555 0.6509943
racket -0.82385755 -0.17238127 0.22227083 -0.10007931 -0.26531205 -0.14795768 -0.29716364 -0.65923184 -0.20514998 -0.1585954 0.45564207 -0.15796354 0.2854536 -0.030685272 -0.65588325 0.08729139 0.52814496 0.15611793 0.080350175 -0.14468801 0.42285064 0.3326474 0.091731295 0.9350003 0.16197138 0.4070451 -0.49169835 -0.12128833 0.2452585 -0.27242163 0.36640233 -0.17814977 0.075811855 0.012862413 -0.13585535 -0.60106504 0.44356763 0.0033259764 -0.55262905 0.32111943 0.34646425 0.19405228 -0.41082475 0.21142058 0.039168924 0.43568513 -0.16587733 -0.23113067 0.34069106 -0.38766834 -0.2631129 -0.542872 0.3750643 0.2918869 0.07948538 0.41984454 -0.5765238 0.5584486 0.86929095 -0.013387374 -0.5237786 -0.73720556 0.7892993 0.27041382 0.47950023 -0.35567716 0.4052928 -0.13509232 -0.6000867 -0.09668544 0.07039317 -0.13799842 0.29808274 0.5466867 -0.47998765 0.34410867 0.9141472 -0.9878056 0.09133073 0.041325875 -0.8256969 -0.5356357 -0.51071763 -0.28419164 0.24497418 -0.3902748 -0.15842515 -0.25227007 0.1980709 0.53562444 -0.11460694 0.5777359 -0.0504451 0.16537632 -0.28649288 0.5524277 -0.053331293 0.31631136 0.15015388 -0.10314201
anxiety -0.30892265 -0.14481728 0.54053044 -0.26450405 0.4304411 -0.037102204 -0.10358355 -0.15741117 -0.071000986 -0.08552994 0.12404703 0.3145393 -1.0086886 -0.27030504 -0.2658796 -0.36494154 -0.42406714 0.12600178 0.13152894 0.21725786 0.20473066 0.34005573 -0.01597724 -0.07864611 0.0030532223 1.0202008 -0.3402092 0.47418496 0.06461475 0.3995944 -0.13843188 -0.2527683 -0.24656135 -0.1806613 -0.09894385 -0.061629135 0.08976003 0.27801338 0.008104508 0.37796742 0.57805955 0.083332434 -0.01980628 -0.08074747 -0.25834665 -0.34882793 0.2719829 0.33041784 -0.04101944 0.20217231 -0.3249849 -0.3348104 0.17501967 -0.7348322 0.03090109 0.32987693 0.3198437 -0.3234133 1.0091419 -0.3705265 0.15258548 0.23365512 0.36280772 -0.95576817 -0.15234926 -0.08929227 -0.19411136 -0.026737666 -0.029814046 0.32232946 0.0085818 0.12434101 -0.33660042 0.010525954 -0.11592111 0.3939939 0.6854344 -0.004213576 -0.21066856 0.49355364 -0.025809977 0.07050845 0.5082777 -0.8976325 -0.07594992 0.063270725 0.117844984 0.08438619 -0.16505305 -0.5712669 0.054151062 -0.08496503 -0.32562643 0.33315182 -0.089073695 0.36710787 -0.38165087 0.21380438 0.31318554 0.2085904
jazz -0.80418265 0.63603926 0.08938477 0.037345376 0.25313506 0.7066518 0.17060123 0.15381016 -0.4314228 0.052634697 -0.10641483 0.2619019 0.020357937 -0.1865123 0.1427465 0.56823564 0.006516225 -0.018255504 0.6970313 -0.1977117 0.3892578 0.88129437 0.67842996 0.8224537 -0.40337497 0.78580177 0.62883884 0.24123602 0.04370619 0.5096858 0.32230636 0.516084 0.12842466 -0.2836277 -0.06297909 -0.5016303 0.7151464 -0.08328547 -0.309 -0.47080073 0.43635777 -0.8527851 -0.21886452 0.3035282 -0.6915901 -0.6292247 0.15854236 -0.2631747 -0.5532788 0.085589774 -0.101724744 -0.5792187 0.073351994 0.05716398 -0.3928708 -0.17378972 0.6650264 -0.20252775 0.0054240497 -0.56090695 -0.29014668 -0.35613266 -0.053134285 0.13388504 -0.2895719 -0.21281968 -0.7847496 0.26721928 -0.48359638 0.18713172 0.72586143 0.009487235 -0.079518266 -0.16075692 -0.35793036 0.058821615 0.51523465 -0.3723629 -0.043949425 0.8955476 0.36941472 -0.16478276 0.022311935 -0.019774066 -0.089794606 0.1731621 -0.042518698 0.4039791 0.25596085 -0.15385391 -0.020555979 0.022473685 -0.47395188 0.42790186 -0.12646726 -0.53740543 -0.07993894 -0.08810937 0.5834418 0.07113686
gain -0.26484177 -0.012539359 0.6305462 -0.035999216 -0.1123876 0.21836263 -0.23698245 -0.39097267 -0.040463373 -0.2690066 0.064952925 -0.30960885 -0.017792642 -0.31649098 0.111855045 -0.39260578 -0.32514703 -0.033390712 0.20269355 -0.027682146 -0.12615505 0.5044157 0.018432384 -0.78845936 0.23264907 0.07977341 -0.3497561 0.20976955 0.12304168 -0.25092745 -0.07228755 -0.23659623 -0.17078789 -0.2936378 0.02200293 -0.14215972 0.29814646 0.0015051456 -0.37629527 0.16066909 0.41389534 -0.20465313 0.27833083 -0.2390188 -0.086113766 0.23737203 0.50551474 0.2464861 -0.49139294 -0.141987 0.11112005 0.06938019 0.005963104 -0.74651635 -0.2711054 0.37726858 0.49024406 0.109304845 0.8641847 -0.04714838 0.3903516 0.15781927 0.31175134 0.1256322 -0.15895735 -0.07248827 0.5241816 -1.0999537E-4 0.41014126 -0.23894045 -0.014725216 0.2197524 0.2158407 0.21005467 -0.40008733 0.50946224 0.54560244 0.13605207 -0.3246947 0.41840127 -0.235622 0.3045386 0.40500927 -0.47084087 0.1531788 0.085660085 0.06431367 0.23703171 -0.13623732 0.052554972 0.98998445 0.6159004 -0.54430884 0.04889385 -0.018499104 -0.06461586 -0.06850218 0.25789267 -0.116808705 0.021953238
history -0.4231718 -0.15448709 0.25684652 -0.43214732 0.2509047 0.18174995 -0.16420949 -0.29798117 0.16177733 -0.18752266 -0.13033715 -0.10334526 0.037808917 -0.28397855 -0.3896505 0.21842785 0.08398417 0.24261896 0.07341199 0.08167091 -0.059466913 0.40429434 -0.007962836 0.6575299 0.016807325 0.38237065 0.05358263 0.36248046 0.053678755 0.11433307 0.023274966 -0.06572622 0.079107 0.193549 -0.49215093 -0.29111195 0.20892651 -0.23543875 0.01780696 -0.318603 0.4801573 -0.28447783 -0.072515324 0.05827054 -0.1885441 -0.03653436 -0.054270387 0.03516223 0.14356117 -0.42342588 0.084813714 0.16911851 0.120219044 -0.52040154 -0.46541253 -0.3072204 0.5681759 -0.0504357 0.5090999 -0.72394097 0.29597354 0.052090175 -0.23282458 0.05427432 0.00831268 -0.38932 0.07854596 0.04876368 -0.027230917 0.4386773 -0.26372683 0.07155024 0.13935177 0.49138245 -0.22803652 0.46794376 -0.060672574 -0.48647487 -0.021519925 0.5464885 -0.2735957 -0.16427484 0.30268657 -0.7513351 0.3527997 0.10035907 -0.27201128 -0.17064433 -0.19857438 -0.242669 0.12512897 0.4452437 -0.64040613 -0.23156868 -0.40915117 0.012318815 0.0594784 -0.21612173 -0.36627275 0.10899787
bird -0.52265656 0.38544962 0.55249935 -0.21960165 0.11066398 0.09007941 -0.007870759 -0.26612955 -0.9854761 0.1629409 -0.22110875 -0.21210447 0.33371124 -0.16474326 -0.48362523 0.058771733 0.15605773 0.051765364 0.07267166 -0.27240506 0.22577965 -0.049010277 0.578232 0.9180316 0.2328493 0.7316983 -0.2312615 0.012623384 0.31635424 -0.21048833 0.16756378 -0.36686626 -0.19344215 -0.4332696 0.13922866 0.10155372 0.4610535 -0.113522045 0.1691025 0.33905143 0.4602828 -0.17814387 0.17416087 -0.47051442 -0.008595877 -0.083892755 -0.042226296 0.29077443 -0.30805743 0.593744 0.17225437 -0.11482144 0.07927433 -0.102345355 0.37249327 0.21535617 0.0447939 0.44731423 -0.12072531 -0.5755099 -0.0027402437 -0.09587905 0.050205823 0.0011888139 0.06852915 -0.04516224 -0.73922163 -0.2622702 0.17612316 0.04522829 -0.0053363717 0.11855985 -0.32961807 0.17162758 0.3297333 0.09327288 -0.21590446 -0.3891711 0.38358337 0.5513194 -0.43212846 -0.5132499 -0.32443583 -0.4006366 0.62010086 -0.51573336 0.27593508 -0.3125035 0.058819022 0.17286906 0.36474556 0.3862284 -0.35427415 -0.18433797 -0.5852893 0.6065274 0.3021883 -0.27834287 0.013239154 -0.14944088
possession -0.6144233 -0.073870435 0.4058479 -0.12230094 -0.010333993 -0.3399401 -0.20586774 -0.33004865 -0.24453503 -0.19297372 0.7681514 0.23698115 0.061680514 -0.18443817 -0.05019889 0.13355452 -0.049375683 -0.03722604 0.6264237 -0.7098057 0.08270821 0.2844368 -0.07799467 0.013346941 -0.17999303 0.58987445 -0.49806455 0.16999951 0.046957485 0.0062417355 0.1116759 0.39798683 0.030738294 -0.5181213 0.35100767 -0.4460854 -0.14309281 0.2409917 -0.019748677 -0.4348801 1.0363034 -0.15435609 0.5206205 -0.28821787 -0.48470342 -0.18429527 -0.0913548 0.65563804 -0.23030369 -0.4886108 -0.014691145 -0.20230821 -0.0037688164 -0.39102617 -0.51838773 0.36186638 -0.5929691 0.7519301 0.54892296 -0.52585304 -0.26338336 0.19029273 -0.22869644 0.74498963 -9.27576E-4 -0.27872428 0.2217302 0.57589906 -0.2851427 -0.48627874 0.041993517 0.27233616 -0.3366648 0.4750646 -0.9203696 0.56362057 0.5891377 -0.22880617 -0.5838477 0.1066282 -0.47438437 0.52358556 0.5371007 -0.27251935 -0.044538062 -0.06515273 0.32234633 -0.123155884 0.2689095 0.39694092 0.2516039 0.10873464 0.21864383 -0.20124699 -0.6149247 -0.365717 -0.2867724 -0.97533673 0.7390419 0.13214356
yen 0.18398409 -0.32651454 0.8028244 -0.3387718 0.6063084 0.0473556 -0.9161898 -0.41046262 -0.18463242 0.07239547 -0.07569506 -0.56785506 0.5962046 -0.55067873 0.13412192 -0.23586906 -0.67312825 -0.25443795 0.5266973 -0.06576781 -0.21887282 1.3077484 0.31982142 -0.38486102 -0.08458202 0.1556396 0.3441552 0.015032937 -0.26579845 -0.57950366 0.9817177 -0.04701915 -0.6131604 -0.18987353 0.4811314 0.14230752 0.4702773 -0.36195856 -0.6681261 0.6726894 0.022844726 -0.119390436 0.05694655 -0.619703 0.54731005 0.26527625 -0.27173218 0.45273298 -0.12892438 -0.10448155 0.1900374 0.3111691 -0.047341418 0.056081858 -0.16309658 0.7995363 0.5600538 -0.061014324 0.43427157 0.28613615 0.50676024 -0.14987245 -0.009457994 0.901149 0.91242737 -0.2110293 -0.7102832 -0.53413635 0.37028748 -0.45319903 0.25628307 -0.39301467 0.14434165 -0.313124 0.31001702 0.31133148 1.0399021 -0.22244123 -0.49377486 0.051321644 -0.0817711 -0.38204545 0.739976 -2.0930812 -0.099750124 -0.42668775 -0.39345613 0.6318306 0.68529725 0.65557075 0.6121483 1.1151601 -0.021329684 0.63748336 0.4426719 0.17001598 -0.20613383 0.036899958 0.5562736 0.099565744
chemistry -0.5095586 0.014119449 0.47606513 0.084360905 0.49185872 0.15630099 -0.58126014 -0.5702615 -0.38421443 0.052089505 -0.003613414 0.23509084 -0.6814481 -0.16229284 -0.4222557 -0.1316267 0.49880284 0.6761816 0.65638316 -0.19541298 0.28192174 0.01882716 -0.14613649 0.63636273 0.07309428 0.21945733 0.17159489 0.32078487 -0.32683292 -0.26178554 0.09824454 0.15195657 -0.43521133 -0.19536823 0.23843744 -0.3773272 -0.009082171 -0.09151176 0.51779675 0.030713027 0.47358742 0.06499504 0.2456448 -0.10944934 -0.67190766 -0.28720453 0.3670706 0.18951844 -0.288811 0.6136588 0.40321717 -0.4725174 -0.2217312 -0.3360792 -0.5491387 -0.13443507 0.60153383 -0.12851231 0.3177106 -0.18660367 -0.38051313 -0.03868789 0.41618374 -0.39624214 -0.24131267 0.35067704 -0.837818 0.13694184 0.17229089 0.4438942 0.3412357 0.20985499 -0.35897487 0.3653892 -0.32117733 0.36500764 -0.52730775 0.05983618 -0.47044796 0.8030889 -0.30518964 0.08291944 0.08587061 -0.25706196 0.5647623 0.20608807 -0.9762975 0.17423676 -0.3261339 0.0033034186 0.38595715 0.8474292 0.13996457 -0.0035451583 0.05951864 -0.7782056 -0.18042405 -0.18979615 0.16834393 -0.32564488
library -0.4888152 0.14873862 0.23894289 -0.15821154 0.26136485 0.33520433 -0.209579 0.21749794 -0.27790374 0.18100345 -0.09768072 0.23275377 -0.015847256 0.1257547 -0.1889985 0.025312543 0.47224742 -0.062902756 -0.056201015 -0.17075634 -0.25771847 0.15367927 0.35018393 0.4966415 -0.27518782 0.019400226 0.18006276 -0.002730964 -0.083913304 0.20069845 -0.50902504 0.38474274 0.27616727 0.29901758 0.11501536 -0.028253607 0.08305537 -0.4666843 -0.10105953 0.105882846 0.4082445 -0.00942404 0.48582524 0.20798403 -0.11065084 0.3584149 0.14536591 0.1547146 -0.08937369 -0.10697278 0.24199216 0.011328835 -0.33242705 -0.47458392 -1.0668466 0.07507427 0.77353007 -0.12352124 0.47661227 -0.42855716 0.56974804 -0.017971935 -0.13199076 -0.05947898 -0.25689104 0.11332662 -0.10320513 -0.44616398 -0.18145557 -0.08498484 0.11386989 -0.36336258 -0.23748246 0.37599325 -0.42992604 0.17277677 -0.058513924 -0.65307254 -0.23218486 0.9018134 0.02734396 -0.48940378 0.25991574 -0.12821731 0.12568231 -0.3682344 -0.30528045 0.7585265 0.009318031 -0.026779432 0.11841968 0.20384987 0.11464643 0.5796345 -0.6422372 0.1674801 -0.19164315 -0.10384781 -0.5111991 -0.11382994
virtuoso -0.7824634 0.1281482 -0.120538 0.27954853 -0.082317 0.5667869 -0.038299456 -0.76926184 -0.2065855 0.14625375 -0.43541014 0.29679585 -0.27322432 -0.12989527 -0.114372104 0.41180354 0.5018186 -0.05550686 0.36254528 0.26636612 0.3620985 0.07532839 0.28911853 0.5888824 -0.6878135 1.0136778 0.15441222 0.34087983 0.28598252 0.051375955 0.6982312 0.7560245 -0.29073521 -0.5363232 -0.55352354 -0.40908924 0.25314647 0.14129421 -0.1546679 0.13384318 0.80518734 -0.48959157 -0.19447717 -0.45411044 -0.5241649 -0.65822345 0.052238762 -0.2527618 -0.59413445 -0.15708877 -0.55941015 -0.9041845 -0.005929055 -0.026848398 -0.029631788 0.17161593 0.48323762 -0.46460757 0.10500145 0.022669248 0.40511528 0.2839681 0.07225725 -0.021473624 -0.14320235 -0.46017238 -0.6765411 0.024276119 -0.9919324 0.41785872 0.5092825 -0.026999203 -0.4301987 -0.013887357 -0.06170823 0.052683566 0.5114457 -0.73824215 -0.3425575 0.33304885 0.20847891 0.12951374 -0.04403812 -0.16869278 -0.30089808 0.410674 -0.10304482 0.5146913 -0.047763463 -0.124755695 0.14037961 -0.13404445 -0.19270943 0.08900031 -1.0332817 -0.32185525 0.24716295 0.029654639 0.6278311 -0.16088627
psychiatry -0.4625378 0.20374432 0.51234335 -0.74588627 0.25468528 -0.13204645 -0.5081031 -0.1294095 -0.15732215 0.16092214 0.041815206 -0.08146029 -1.1948615 -0.42586926 -0.08983176 -0.2196231 3.3358313E-4 0.34965128 1.3148477 -0.15460962 -0.02304404 0.18955706 0.2117329 0.5051437 0.32149628 -0.08449043 -0.33396432 0.43498382 -0.035374906 -0.39534932 -0.48766616 -0.2524484 -0.3155414 0.117719986 0.104960196 -0.1881973 0.33045638 -0.54692894 0.42887232 -0.6670998 0.6221511 0.18556802 0.8762785 -0.71834755 -0.7626203 0.13794689 0.5412718 0.84186137 0.3802754 -0.011783493 0.100894935 -0.91342884 -0.13921316 -1.0336323 -0.55205697 0.654843 1.1289189 -0.2568724 0.84164417 0.057080425 -0.46872297 0.3636865 0.5265933 -0.54698753 0.3022643 -0.23791061 -0.43566477 -0.21917325 -0.18427597 0.35185778 0.44282025 -0.17909354 -0.53628486 -0.26833227 -0.76707363 0.26887277 0.25323173 -0.12876086 -0.13571326 0.3345649 0.078791805 -0.25615865 0.23242396 0.0028479728 0.73074454 0.0439121 -0.13107213 0.40125266 -0.34795073 -0.70612735 0.2754318 0.13407956 0.09950837 0.27992338 -0.03959156 -0.15129042 -0.6193353 -0.92463666 -0.20008579 0.45222515
change 0.10262898 0.07997416 0.4999293 -0.12860195 -0.24479526 0.34950507 -0.44770482 -0.35351133 -0.5866837 -0.3025003 -0.57144845 0.08237665 0.15990993 -0.14376016 -0.22980031 0.13058311 -0.0034611619 0.13889879 0.31470585 0.29954097 0.23105599 0.65577304 -0.37738436 -0.030073196 -0.6368951 0.2543062 0.12904426 -0.025955712 -0.368246 -0.5727316 0.09166238 -0.21743995 -0.15322971 -0.18057907 -0.20938909 0.038227577 0.13358966 -0.19998851 0.48613635 -0.14195248 0.40207532 0.0038467834 0.084071234 -0.19973977 -0.033349555 0.41881245 0.8422505 -0.0998987 0.06379589 0.2808279 -0.13728754 -0.40693358 0.41013217 -0.062049232 -0.4874543 0.2682192 0.21627975 -0.16444622 0.39133316 -0.6353881 0.23232205 0.3225586 0.14645989 -0.30294058 0.21444201 0.01455573 -0.30545214 -0.07148807 0.25070044 -0.094165355 0.41105288 0.12449881 -0.15926285 0.048594717 -0.1508122 0.28180584 -0.15636829 0.09381015 -0.23366527 0.47162297 -0.3666936 0.10349687 0.3196455 -0.57721823 -0.11989354 0.028033642 -0.095671006 0.041656658 -0.0330114 0.05770175 -0.1970894 0.28053266 -0.6247273 0.16492221 0.13025013 0.08045219 0.027823878 -0.12392666 0.18106067 0.40345508
entity -0.20794548 0.07999422 0.31642604 0.36028415 0.28446543 0.24460652 -0.6062054 -0.36875474 0.05198237 -0.27723113 -0.10286413 0.5298844 0.28120008 -0.6346351 -0.16027303 0.22361875 0.32172218 -0.07744065 0.30308577 0.3147954 0.31338447 0.40249598 -0.0016067543 -0.2942108 0.25537062 -0.14641961 -0.45158234 0.013373866 -0.1008668 -0.17110321 0.1816002 0.12340213 -0.3049318 -0.06912854 0.56165 -0.53962266 -0.31436372 0.13263933 0.27732575 0.26987365 0.36126277 0.4440084 0.3922104 -0.09903245 0.17258148 0.43549684 -0.3186506 0.17674324 -0.62577575 0.17419712 0.31345743 -0.20583065 0.23871237 -0.9379633 0.11760558 -0.03649647 0.48190844 -0.28812855 0.10279614 -0.8980078 0.71298176 0.14591534 -0.4760677 0.22094652 0.25883242 0.6811204 -0.008228193 -0.45015392 0.06865199 -0.49009317 0.9185815 0.38307008 -0.3097276 -0.36947885 -0.66975707 -0.09857488 0.39687228 -0.2483538 -0.28410426 0.111341216 -0.34998557 -0.120440036 0.41944322 -0.3778868 -0.12253005 0.098595925 -0.01817195 0.38683823 0.05757889 0.27583888 0.1920613 0.5669115 -0.5934157 -0.29130656 -0.3398851 0.21718085 0.59119385 0.3436441 -0.57473207 0.39531738
tool -0.37328175 -0.23360798 0.22762147 0.09249226 -0.23585479 0.6118606 -0.47102585 0.019112444 -0.60161144 -0.27027702 0.50681084 0.45864776 -0.033715982 -0.40617138 -0.27297524 -0.5548126 0.12677997 0.31360322 0.067584746 0.2346832 0.22633857 0.12306004 -0.22797042 0.10477391 0.39620715 0.25810742 0.3941744 0.40264514 0.10285028 -0.091471195 0.23463541 0.30918804 -0.5692083 0.63648593 0.11171559 0.1136336 -0.096259564 -0.0832759 0.29263878 0.0121605415 -0.025660051 -0.04591715 0.46652648 -0.59809095 -0.044933155 0.568055 0.50463426 0.3704888 0.05328206 -0.06441148 -0.20988715 -0.595251 -0.1315461 -0.5531338 -0.12668224 0.49336433 0.37029928 -0.58365166 0.5625875 -0.6541593 0.29058173 0.5552689 0.21910362 -0.054886453 -0.1282509 0.22181398 0.12827037 0.0670574 -0.21492942 -0.095140696 0.3612454 0.033798993 -0.26341614 0.5939893 -0.48205736 0.5410844 0.38300312 -0.297074 -0.059551507 0.6334771 -0.37454036 0.23585403 0.36074862 0.112383865 0.42970133 -0.036829196 -0.48315716 0.20986114 0.028638506 0.41425046 0.15112326 0.06841592 -0.13267384 0.10060882 0.06848393 0.39048907 0.081003316 -0.28726363 -0.28044412 0.08745249
stupid 0.095290296 -0.014693988 0.52617013 -0.22454102 -0.09017359 -0.047981728 -0.5694444 -0.6297269 -0.476211 -0.36113462 -0.17908756 0.5505585 0.07382881 -0.1846382 -0.5245326 0.29527825 0.41076207 0.08707621 -0.26635396 -0.032769922 0.65248305 0.23395367 0.4060214 -0.16785572 0.13434075 0.104772076 -0.43318257 -0.26518115 -0.17244907 -0.24556981 -0.38188308 0.13991258 -0.36496514 0.07603964 -0.10042965 -0.1619839 0.45670968 0.022292394 0.15802218 -0.40685275 0.70176476 -0.295738 0.12521039 -0.40626356 0.04777846 0.007216009 -0.12709816 0.48862937 -0.19007556 0.11642804 -0.3641161 -0.36719072 0.017422743 0.0972135 0.17026955 -0.14982812 -0.16064055 -0.23856756 0.73082364 -0.20968306 -0.19129862 0.5021856 -0.31303087 -0.2327109 0.37739298 -0.533758 -0.6149004 0.11537368 -0.39462867 -0.22607867 0.11159705 -0.38511065 0.4556539 0.18900982 -0.55970865 0.52433234 -0.26913977 -0.8513421 0.1815168 0.33471432 -0.7410849 0.53081745 0.39034006 -0.34394097 0.1627653 0.013231477 -0.25737262 -0.2773279 0.076960705 0.17187507 -0.35330367 0.44053975 0.085849166 0.55418 -0.23934007 0.49627736 -0.27727157 0.2704201 0.3122523 0.58341223
precedent -0.14239034 0.15505658 0.36856204 0.15198883 -0.05232063 0.11606947 -0.7084441 -0.6691267 -0.115438335 -0.7463768 -0.34512988 -0.10985476 0.3537903 -0.57616276 -0.21625772 0.5091971 -0.016470024 0.4366779 0.16469103 0.23213634 0.038418423 0.07800938 -0.09071707 -0.21246 -0.07625003 -0.3431032 -0.056918394 0.07659118 -0.26010284 -0.48762387 0.18398856 0.55499244 -0.031833895 0.38243124 -0.18596509 -0.31566557 0.09582746 -0.07010982 0.34255552 0.16614874 0.9598591 0.32928768 -0.29367626 0.13983527 -0.64662844 0.060105138 0.24541943 -0.089934126 -0.042573035 0.056782924 0.31774914 -0.58552057 0.063785486 -0.42446375 0.46385184 -0.25693858 -0.23720185 0.07891915 0.75410706 -0.55957884 0.21873547 0.36426112 -0.16242707 0.07847597 0.6108459 -0.328085 -0.25699863 0.28596577 0.31884894 0.12813987 0.45213532 0.3318226 -0.19851589 0.14922936 -0.19555831 0.15193786 -0.06566609 -0.33071205 -0.22681786 0.21600875 -0.7151607 0.11349283 0.29752538 -0.37897584 0.0802368 -0.06738583 0.11154468 0.5372314 0.7513393 0.5313585 -0.15708926 0.26548606 -0.35537073 -0.27493313 -0.68313926 0.2877105 0.21181487 0.009825974 -0.20687973 0.34358022
architecture -0.70442826 0.20351374 0.048825417 -0.13315997 0.442225 0.84068185 -0.10461455 -0.66666293 -0.5102016 0.2598836 0.053932123 -0.16605793 -0.5386988 -0.16267802 -0.08865656 0.32068974 0.34232938 0.2977874 -0.12958416 -0.3317704 0.41392684 0.14453125 0.12820484 0.62767917 -0.2109156 0.032314014 0.33816218 0.451246 -0.08516654 -0.11700452 -1.6709279E-4 0.14052594 0.25438294 0.33564216 -0.084899224 -0.33725703 -0.34515208 0.13627286 0.55274326 0.07077904 -0.09745079 -0.16100417 0.62837446 0.16001275 0.07678674 0.3498947 0.4706351 0.19188666 -0.13327964 0.11060466 0.3818695 -0.7603719 -0.10229223 -0.16907576 -0.60193104 -0.50245816 0.71722513 -0.46529573 0.30506447 -0.4721715 0.7046455 0.18489854 -0.033398237 0.10336456 -0.27581203 0.20744951 -0.30231637 -0.08960838 0.16213351 0.40461674 0.4340891 0.3207727 0.42913404 -0.44523388 -0.41898665 0.39808488 -0.48692307 -0.6960116 -0.34278628 0.6753107 -0.035946053 -0.29748425 -0.22622105 -0.27396938 0.14214721 -0.08574305 -0.10965049 0.49313846 0.3270059 0.21389252 0.13785386 0.48952916 -0.14640395 -0.20177072 -0.30874205 -0.13864225 0.13160434 0.43429857 -0.030624926 0.018639734
consumer -0.3215113 0.0295283 0.17401047 -0.26760396 0.4855923 0.06902767 -0.32250217 -0.28592306 -0.5576878 -0.512517 0.0122721335 0.3036321 0.27410015 0.1626451 -0.5460277 -0.34977978 -0.097977504 -0.0615397 0.11654311 0.14230934 0.19720802 0.59652835 0.25399712 -0.3017431 0.43852326 0.5333718 -0.12861581 0.37662968 0.046274874 -0.21374132 0.77883226 -0.0854631 -0.3735679 0.28169277 0.7067643 -0.14866987 -0.14488392 -0.23036897 -0.37202418 0.41439632 -0.037083466 -0.14199762 0.64283293 -0.18477055 0.4411937 0.41438016 0.5585012 0.57551384 0.047707427 -0.28083315 -0.2793496 -0.024036657 0.29696116 -0.7119604 -0.3074164 0.6237846 1.0460651 -0.106418505 0.6889154 -0.20762154 -0.031628434 0.31992286 -0.103396155 0.15456717 0.3307349 -0.28814635 -0.31255418 -0.08892627 -0.33026063 -0.54331976 0.5259934 0.09854092 -0.19542466 -0.1294675 0.29685482 0.48283172 0.28372043 0.2575753 -0.33979547 0.3553104 0.37211394 -0.062823184 0.44348854 -0.33556837 0.23918705 0.07739676 -0.10533476 0.4100724 0.17877498 0.28958166 0.031914018 0.9748378 -0.7440381 0.30517676 0.26502436 0.1164145 0.031355813 0.25102165 0.7040388 0.15237494
doctor -0.6390403 0.60241467 0.19633555 -0.43290633 0.21073608 -0.031204648 -0.06402678 -0.21463394 0.069845684 0.15615822 -0.0043627955 -0.27092463 -0.75074935 -0.2583086 -0.11184478 0.17958835 0.26881903 0.08991916 0.51552594 -0.47345248 0.35853267 -0.16708818 0.27422264 0.23242275 0.38606295 0.33659682 -0.6819036 0.35505077 -0.08690812 -0.47892177 -0.33825368 -0.14252716 -0.52816 0.2836762 -0.23758648 -0.6543348 -0.24171002 -0.0056216354 0.40300837 -0.11258536 0.60732573 0.30226204 0.09069269 -0.3785406 0.08072792 0.05841162 0.36658695 0.2737343 -0.13251854 -0.11162767 -0.24754846 -0.55067706 -0.027294967 -0.28204343 -0.12683076 0.48160318 0.26156828 0.056344323 0.3973304 -0.12498962 0.16340041 -0.087045856 0.60168356 -0.13270235 0.10755968 -0.32597056 -0.4815389 -0.4466393 -0.50242 0.3289663 -0.26933587 -0.36844668 -0.62714005 0.5035711 -0.15677182 0.078280084 0.38250586 -0.333212 0.13856651 0.21471296 -0.4184498 -0.132575 0.19357592 -0.1685465 0.279132 -0.31720287 -0.23173699 0.075255744 -0.21708159 0.25387302 -0.010721741 -0.40110245 -0.54423654 0.46169513 0.0478611 0.25318646 0.38033953 -0.28583717 -0.1767883 0.27416438
cock -0.19370289 0.04123589 0.42565808 -0.13123237 -0.19212326 0.017464489 -0.24227509 -0.56454754 -0.3218826 0.38633654 0.056350693 -0.36512113 -0.32422212 -0.0016434005 -0.36267146 0.048269123 0.1823765 0.2492267 -0.038057934 -0.1566281 0.13870619 -0.33064815 0.0013051408 0.4825934 0.22936942 0.49631324 0.0760021 0.3637373 -0.47349027 -0.44609007 -0.3558543 0.3921077 -0.035007097 -0.1671267 -0.12452286 -0.05953835 0.62894076 -0.2214551 -0.2970153 -0.33354506 0.9954246 -0.32143784 0.13761623 0.27138537 0.11827478 -0.20928583 -0.096218474 0.36304998 0.15410373 0.36042327 -0.19880529 -0.70817256 0.0060424195 -0.16481769 0.0530798 0.59546083 0.06546438 -0.02702732 0.842384 -0.30791995 -0.25100136 -0.17874965 -0.66058177 -0.04385888 -0.48925397 -0.4845774 -0.096039936 -0.27787584 -0.09083792 -0.33462065 0.3827526 0.3224301 -0.08004618 0.08862719 -0.18462542 0.36612892 -0.100832514 -0.32402077 0.21594909 0.1600265 -0.5814878 -0.13842069 0.016415255 -0.26078144 0.4125703 -0.33713862 0.16911347 0.01044318 0.17069323 0.22878231 -0.22132367 0.37417707 -0.12779345 0.4271091 -0.60145247 0.25914177 -0.41156554 0.08343535 0.07178103 -0.1814101
planet -0.15105885 -0.39071828 0.9239999 -0.37856308 -0.24854068 0.160294 -0.05850748 -0.28605878 -0.11384886 -0.51245725 -0.47299147 -0.29427403 0.33622664 0.026245492 -0.4554096 0.48836616 0.5642991 0.3975492 -0.09579181 0.04934882 0.25870502 -0.35116422 0.2127038 0.62004864 -0.62789667 0.31446 0.3277149 0.35990784 -0.29129326 -0.33427852 0.31100765 -0.13968179 -0.6304566 -0.58522314 -0.031332962 0.013763448 0.45521474 -0.22659749 0.36804792 -0.34290102 0.23725079 0.36400777 0.8993472 -0.24626507 -0.065960795 0.10920427 0.36715302 0.13481975 -0.04444805 0.39702472 -0.118376166 0.12648901 0.454573 -0.051073704 -0.11234763 0.2429695 0.1062151 0.2200773 0.655988 -0.33781773 0.6947528 -0.16057423 -0.07099286 -0.18227325 0.11979595 0.11525217 -0.2100435 0.009841049 -0.22690356 -0.06274127 0.24939771 -0.11731481 -0.10203767 0.15885803 -0.32882163 0.56518936 -0.4761212 -0.304573 -0.479382 0.9183834 -0.37290964 -0.19430017 0.23423748 -0.4808387 -0.052080702 0.034825046 -0.2736349 -0.043800373 -0.19799006 -0.051216315 0.17488723 0.17200758 -0.3986727 -0.10157896 -0.1443103 0.39541018 -0.12408874 0.44500473 0.56434494 0.01620348
software -0.5914102 0.1989243 0.09586611 -0.05462848 0.07336608 0.56266296 -0.54159844 -0.64432144 0.008264331 0.10438478 0.16745043 0.5353568 0.14025639 -0.43285418 0.052181058 0.27354962 0.61013204 -0.0796213 0.16721918 -0.224115 0.007033056 0.014497719 0.16738187 -0.51499045 0.6678818 0.30403787 0.2316255 0.25487098 0.07765235 -0.22351214 0.49721915 -0.12478901 -0.2831717 0.30456045 0.63459027 -0.17258935 0.096970655 -0.07550038 -0.33236516 -0.23664366 0.06682315 -0.05941654 0.7857702 -0.82116777 0.34167358 0.9276185 0.40114522 0.31907886 -0.38927498 0.30309302 0.095502436 -0.2630105 -0.020458773 -0.61219245 -0.024698598 -0.062340114 0.6981328 -0.74258465 0.6593218 -1.0278419 0.15113188 -0.052476242 0.0798284 0.24182469 0.22795178 0.10873097 -0.1159195 -0.34926584 -0.35548264 -0.504394 0.8368592 -0.54731596 0.11636094 -0.14264882 -0.34679118 0.41947225 0.35188243 -0.18591918 -0.7194816 0.21706091 -0.15730703 -0.36102608 -0.08369682 -0.5042666 -0.18921204 -0.0010193348 -0.2761147 0.5301254 -0.38285038 0.69052744 0.17923209 0.6287082 -0.080800354 0.250238 0.24263369 0.24213654 0.17607561 0.27146432 -0.32720438 -0.021315215
personnel -0.8634746 0.45323017 0.5885105 0.08889712 0.48172194 -0.27624208 -0.2883146 -0.43194586 -0.11256433 0.074432015 0.48791832 -0.31609127 -0.18474257 0.025274526 0.10926945 -0.56264156 -0.39297828 0.6436086 0.03640252 0.4627808 -0.15406989 0.2740002 0.03369746 -0.3704773 0.3143043 0.24541917 0.092167504 5.4420496E-4 0.33017874 0.0042595253 -0.3712537 -0.12512472 0.047056843 0.2051897 0.0017029148 0.02708632 0.35289964 0.016816221 0.10334655 0.19242978 0.06406518 0.09167216 0.28084993 -0.34154233 0.14969888 0.71037114 -0.10864759 0.030223569 -0.17695987 -0.56734025 0.52324766 -0.46311402 0.016372502 -0.38314578 -0.57072955 0.051531255 -0.020297319 0.71602994 0.6084568 -0.73398435 0.6449447 0.37743545 0.50828695 0.4056638 0.68234307 0.16377401 -0.07763572 -0.0037407654 0.13855009 -0.10976423 0.066919595 0.02294748 -0.057134457 0.61226 -0.083338514 -0.078207284 0.12641458 -0.50029576 -0.35844815 0.10539117 -0.3723819 -0.085583396 0.0073081236 -0.29281363 0.1077217 0.3744514 -0.10996973 0.06633584 -0.23734362 0.19428705 -0.1542821 -0.011735947 0.08713457 0.23961459 -0.0747012 0.33752447 0.31813473 -0.03954793 -0.23285986 0.7279806
bank -0.046046764 0.20330116 -0.07102674 -0.5535018 -0.03317565 0.16592163 -0.34821895 -0.79678816 0.09273533 -0.21207571 -0.13666174 -0.31161198 -0.05789545 -0.8202644 -0.37803006 7.975758E-4 -0.5004618 -0.059279174 0.030806258 0.2047538 -0.04701197 0.8878155 0.17653288 -0.09429867 -0.017877104 -0.12089034 -0.57940686 -0.23300958 0.37486067 -0.05201731 -0.30214605 -0.5462062 -0.076963 0.031506177 0.13841873 -0.14938498 -0.16136718 -0.17504868 -0.05905394 0.33110604 0.25880417 -0.0472655 0.14755607 0.06346866 0.40035892 0.45830855 -0.15816303 0.1751818 0.08890265 0.35298252 -0.2854066 0.070135124 0.19817723 -0.5767834 -0.4711606 0.57306147 0.84865594 -0.21452902 0.12175092 -0.20865054 -0.03157661 -0.32080162 -0.23290947 0.31833407 0.4264177 0.9316058 0.044704314 0.026765011 -0.3447583 -0.37378073 0.40756902 -0.050715502 -0.4062222 0.044566847 -0.14980614 0.059456546 0.27518925 -0.44338867 -0.2489734 0.35568386 -0.056961205 -0.4067682 0.20340824 -0.6413329 -0.086732924 0.16023575 0.04118074 0.75619125 0.39745316 0.29020092 -0.41981092 0.719621 -0.40768602 0.07620284 -0.1526985 0.02225298 0.31640413 -0.12941794 0.051035594 0.13525772
victory -0.3040636 0.00659905 0.6376104 -0.5301513 0.06212245 0.3574488 -0.356903 -0.038505863 -0.3481119 -0.08941202 -0.20053734 0.13594069 0.3622309 -0.7538403 -0.6465549 0.32914835 0.1816407 -0.06582649 0.69847834 0.14292741 -0.16134791 0.61488116 0.38906 0.6546673 0.10488935 0.54577416 -0.002004156 0.67430663 0.048417512 0.046154086 -0.08394689 -0.15707526 0.31649014 -0.48690954 -0.39374405 0.25586668 -0.17372906 -0.26411185 -0.27462065 0.1475702 0.46117157 -0.32690394 -0.5618077 0.4909817 0.11533604 -0.1787151 0.0038842729 -0.29635742 -0.4535528 0.028455978 -0.26288524 -0.37923366 0.3081332 0.10802081 -0.34358197 0.15154558 -0.40920043 0.44064686 -0.016699502 0.30378512 0.2791269 0.31039855 0.32299843 -0.36459595 0.3792698 -0.27200562 -0.39079753 0.5520024 0.07295676 0.12380853 -0.12614182 0.24364264 0.55234295 0.19331175 -0.72384125 0.5065905 1.0285902 -0.047294006 -0.028411359 0.7950953 0.0039672046 0.15837571 0.3478996 -0.39112175 0.048686847 -0.30122343 -0.09901777 0.5113692 0.21617512 0.07299022 0.2995663 0.20351896 -0.13119933 -0.52997017 -0.54518867 0.0072086183 0.005048474 0.071201295 -0.029645575 0.34155467
bishop -0.15863293 0.18880515 -0.46174714 -0.0694782 0.47259215 -0.020172913 -0.26632804 -0.4418518 -0.06410841 -0.17960754 -0.1328575 -0.09660895 -0.84582907 -1.0751003 -0.014187743 0.3263738 0.30639228 0.42261913 0.18173382 0.10404721 -0.20068982 0.4481451 -0.03273054 0.62197584 -0.22786884 0.38418403 -0.049836826 -0.024704587 -0.01630312 -0.6044537 -0.26491332 0.20048232 0.3361628 0.17280348 0.27420667 -0.12772588 0.49457803 -0.22793673 0.08220864 -0.33608857 0.87454414 -0.50243855 0.5410284 0.6184643 -0.10844765 0.4094059 0.014074755 -0.37105784 0.19204429 0.06521197 -0.17845228 -0.30565512 -0.68222713 0.017879387 -0.7858258 0.30906856 -0.2522286 0.3039531 0.7401805 -0.38594043 -0.52719915 0.18307789 -0.390316 0.16052741 0.48953024 -0.17050256 -0.31214714 -0.33243692 -0.21706785 0.28478763 0.6963877 0.27773088 -0.44536114 -0.1212289 -0.56283134 0.31120366 0.11583618 -0.11451421 -0.091577716 0.33858 -0.13761549 -0.1260207 -0.11398713 0.07289795 0.08831052 0.011310194 0.3882342 0.05985601 0.12077536 -0.27580082 -0.24176548 -0.258544 -0.51061386 0.30137798 -0.99898595 -0.14953916 0.11880958 -0.38024923 0.01673672 0.7293233
country -0.067760415 0.06664796 0.3905642 -0.60536855 0.2920078 0.279135 -0.21163686 -0.21423502 -0.13210407 -0.3760177 -0.19979405 0.1637585 0.07301657 -0.028284641 -0.07002836 0.43624496 -0.51462024 0.3352494 -0.35634202 0.042010278 0.18870784 0.47967446 0.18603489 -0.10282983 -0.22643399 0.039468337 -0.17296325 0.13039365 -0.05580943 -0.17390925 -0.11062245 -0.17202388 0.2779971 0.15210313 -0.10525426 -0.27742314 -0.078579634 0.04578048 -0.18197897 0.35754237 0.25063822 -0.1655338 0.13681757 -9.4350835E-4 0.42858782 0.43614185 0.388544 0.13073803 -0.09081233 -0.19707799 -1.7869692E-4 0.09694349 0.09844728 0.2966049 -0.40277928 0.272079 0.41617146 0.15467232 0.46209678 -0.6130917 0.42350274 -0.014853519 0.15583466 0.09156386 0.28360927 0.06287804 -0.3662159 -0.13217889 -0.018865688 0.2633834 -0.15532018 0.2306666 -0.20149036 0.27114475 0.071600236 0.5616498 0.39313307 -0.40746295 0.042563226 0.71747226 -0.42464703 -0.22038251 0.13977212 -0.26522902 0.0080203395 -0.12848258 -0.34229127 -0.4288004 0.17533027 0.14202207 0.1884606 0.0061651585 -0.20055561 0.003728592 0.017773608 -0.35042268 0.19698003 0.1816422 0.34338215 0.24301107
sign 0.06296752 -0.09274899 0.047496334 -0.23968111 0.091453165 0.42183286 0.029547434 0.11577906 -0.29449546 -0.14362985 -0.31609935 -0.11518975 -0.12433819 -0.091444604 -0.31511855 -0.2064315 -0.28936222 0.14562868 0.37855995 -0.00873933 0.07329999 0.6379148 0.07005524 -0.16865003 0.05278903 0.8439881 -0.3672413 0.32393703 -0.13783191 -0.30370468 0.43110937 -0.03140575 0.30067194 0.15732215 0.33796656 0.46576735 -0.06211851 0.20954178 0.22768319 0.51086766 0.32268265 0.46503004 0.13117723 0.21582884 0.49807763 0.34859544 0.2603 -0.015110438 0.12540694 0.05693943 -0.06994851 -0.0062159346 -0.48422605 -0.26822737 -0.29598683 0.28254774 -0.080267064 0.11899471 0.79957134 -0.3235166 0.42182803 0.10481138 0.21808946 -0.414092 0.1900308 0.19720231 -0.12065038 -0.23282243 -0.14008129 -0.51030654 0.2464003 -0.09239857 0.41576004 0.2797695 -0.28179228 0.039106783 0.3037373 -0.4489884 0.07111806 0.23738322 -0.10406502 0.32430547 -0.0810962 -0.5211325 0.43879098 0.09682705 -0.32911977 0.3552676 0.36781055 0.18839908 0.08517337 0.08823644 -0.23183414 0.065675735 -0.18774092 -0.21326905 -0.26488408 -0.14389484 0.13320322 0.28712565
proximity -0.61001265 0.10953134 0.02695057 -0.8240616 -0.040859006 0.9453053 0.14578602 -0.1960277 0.07857581 -0.33700958 0.25443956 0.25980547 -0.76412094 -0.13123968 -0.083974525 -0.38038865 -0.3622056 -0.12687643 -0.30570203 0.101673 0.1449787 0.31634086 0.44946754 -0.18554807 -0.213461 0.43717092 0.27226567 0.026218874 0.12763588 -0.7493122 0.0025063 0.12806171 0.69443125 0.29763055 0.06308071 0.24747512 0.10391436 0.475781 0.256093 0.27257672 0.41111857 0.1433813 -0.2721785 -0.39752698 0.10045475 -0.13446388 0.09175648 0.54360276 -0.3753917 -0.26798993 0.097929575 -0.339421 0.37571585 -0.33333153 -0.2994981 -0.11977971 0.16803396 0.16517664 0.10291346 -0.687371 0.42388007 -0.0035686863 0.25360182 -0.5429917 0.39349046 0.14118354 -0.19581343 -0.16473944 0.50240344 -0.22548729 0.22233465 0.51509875 -0.20650023 0.2579351 -0.43903092 0.7319726 -0.08158535 -0.63231564 -0.44303846 0.7607964 -0.54533875 -0.014320616 0.019427685 -0.0126727065 0.42778793 -0.12784001 0.458876 0.21034077 0.14196287 -0.48016098 -0.45468244 0.3784018 -0.12472715 -0.27910802 -0.8002603 0.23996572 -0.17638698 0.11454915 0.21210088 0.055442367
earning -0.31026915 0.18027307 0.7270841 -0.5469089 0.23077348 -0.4938155 0.23659848 -0.7159071 -0.65199584 -0.54174364 -0.43421236 0.0942361 0.2562619 -0.6776504 0.26529625 -0.4611 -0.19461179 0.21168771 0.61406624 -0.13080655 -0.27951398 0.23180984 0.07586532 -0.09928322 -0.28344348 0.528136 -0.015618315 -0.043046404 -0.332816 0.10161041 0.09012495 -0.5190465 -0.05436622 0.08869141 0.13859189 -0.09350147 -0.011746941 -0.14548819 0.07803733 -0.4070264 0.5127279 0.29847145 -0.13562022 0.26000267 -0.22468552 -0.2964707 0.15580294 -0.70791805 -0.1807817 -0.6168435 -0.0857316 -0.27669838 0.22962753 -0.26829737 -0.5069887 0.12166419 0.53876734 0.10028905 0.15673918 0.18916564 0.2868613 0.32239485 0.24966791 0.08938825 0.18837245 0.32312217 0.22513714 -0.2747691 -0.15505493 -0.35610354 -0.35998183 0.14466763 -0.12011715 0.22963262 0.03901198 0.6194619 0.44437146 -0.5134321 -0.13527875 0.41776454 0.10949085 0.31886658 0.2845024 -0.41587 -0.04046854 -0.8634169 -0.34526527 0.5563262 0.31366447 0.7696773 0.28390244 -0.29751056 -0.26060048 -0.23788062 -0.09142754 0.09757263 -0.04993501 0.3768908 -0.1291145 0.006849114
similarity -0.14173502 0.10112655 0.06933137 -0.3219574 -0.6779174 0.8075443 -0.123131536 -0.37762868 -0.68658555 -0.98616034 -0.10074925 -0.21050811 -0.51631 -0.047866188 -0.13766198 -0.20158915 0.24497807 0.15330213 0.37611553 -0.058520235 0.06712098 0.28459507 0.3499688 0.517935 -0.28501928 0.6036141 0.2573172 -0.007825528 -0.20216356 -0.34085372 0.1268612 0.07353141 -0.56578904 -0.49180445 0.0860127 0.13946779 0.08810497 -0.28246114 -0.04721544 -0.0071155443 0.6453612 -0.35187978 0.061484538 -0.43812358 -0.6789338 -0.14300331 0.15700656 -0.13105732 -0.43879047 0.41878828 0.34432656 -0.008130011 -0.35855058 -0.15271574 0.14435662 0.11048514 0.3711867 0.203561 0.40604964 -0.049177818 0.38164842 0.16569747 -0.19671617 -0.2857934 0.14132468 0.049792267 -0.046132546 -0.4574528 -0.19031192 0.18635339 0.595439 0.22228837 -0.10572073 0.7156085 -0.61324763 0.5725331 -0.20762402 -0.6997461 0.3451704 -0.0938063 -0.23298949 -0.5138212 -0.23385946 -0.50050145 0.08073196 0.0882868 -0.19032621 0.3750937 -0.20260346 -0.06532876 0.8626238 0.08248979 -0.08387917 -0.07159779 -0.5704104 -0.21926846 -0.15373634 0.11685085 -0.14039649 0.43653092
example -0.35142815 0.11098547 0.034696884 -0.2582518 0.30842757 0.5172012 -0.1498771 -0.57561404 -0.46136075 -0.21835142 -0.024785824 -0.13801393 0.021427812 -0.31003037 0.1260395 -0.555494 -0.35779464 0.30911455 0.17326306 -0.0110011455 0.07617764 0.121483706 0.11416245 0.25229 0.15484168 -0.016204173 -0.03597509 -0.124775104 -0.1652696 -0.10169451 0.38963318 0.058273494 -0.24551697 0.43880174 -0.06736807 -0.14919578 0.06629035 -0.12204677 0.49882543 0.10641432 0.3288917 0.19428474 0.15858927 0.16955411 -0.0043019447 0.16903482 0.38225758 0.22395767 -0.07212948 0.29883203 -0.5047168 -0.12782618 0.120275036 -0.14007679 0.2931843 -0.3360762 0.44648722 0.31540877 0.6448927 -0.6664921 0.036162663 0.0036162913 0.03656517 -0.22707047 0.11937519 0.12419335 0.026218832 -0.32815158 0.07358806 -0.17488429 -0.13697572 0.09952931 0.03220412 0.2102985 -0.2824856 0.4261395 -0.57426757 -0.5439547 -0.6218615 0.407893 -0.50702727 -0.0023289653 0.108372465 -0.5874949 0.46497548 -0.31668055 -0.17676352 0.35510665 0.20285653 0.2718411 -0.059452884 0.29859236 0.123885244 0.19662884 -0.16236237 0.082938395 0.25067925 -0.09854998 -0.070233345 0.029753013
day 0.36000267 -0.082358986 0.68239045 -0.20454374 0.17966458 0.21322434 -0.04301771 0.043108705 0.087192185 0.23508026 0.037086945 0.022675024 0.07048642 -0.4420626 -0.35658124 0.22703303 0.13347758 -0.0053504356 0.086862735 0.068343915 -0.079633035 0.6409894 0.427371 0.32641608 -0.16439827 0.31971133 0.358993 -0.05157006 0.07179995 -0.10455506 -0.010430522 -0.22875644 0.08981241 -0.124772646 0.0048903725 0.013788332 -0.20183842 -0.35838994 0.05991439 0.2422135 0.34359688 -0.04469842 0.1209 0.074762486 0.6437246 -0.075608574 0.22792111 -0.048077196 -0.07992093 0.11221128 -0.1371376 0.0046894504 -0.1541554 -0.3863564 -0.15955488 0.30386946 0.22791131 0.45541504 0.402075 -0.32189384 0.25342986 0.32281163 0.40987897 0.0413691 -0.09357574 -0.29545543 0.2174527 0.21887703 0.17684694 -0.13847648 0.15113153 0.11459549 0.0059541427 0.24019495 -0.0496662 0.31442887 0.22291411 -0.3519271 0.006835069 0.52390707 -0.47176588 -0.4360977 0.13774163 -0.41250208 0.30222407 -0.36346772 -0.37735215 0.19887744 -0.3877143 0.778241 0.13824016 -0.054632295 -0.09345265 0.48542875 0.17899863 -0.27095366 0.07648487 0.44880572 0.16274144 0.17232537
gem -0.39664152 -0.017692303 0.2928385 0.07941882 0.4574793 0.45670533 0.7511242 -1.1375618 0.19810663 0.32028526 -0.05969695 0.069546625 -0.0122414045 -0.25778395 -0.534477 0.42739597 0.402957 -0.36050186 -0.16251475 -0.05850452 0.17136684 -0.07254406 0.3768329 0.5608863 0.1887453 0.6441476 0.20525375 0.4046002 0.1926683 0.046628837 0.1982482 0.03446918 -0.14402093 -0.05879172 -0.40649393 0.07312875 -0.2176572 -0.26495862 0.21937619 -0.2474032 0.5729576 0.045270313 0.39343488 0.14787193 0.731621 -0.38250998 -0.6499696 0.13602273 -0.33499703 -0.10304135 0.018440813 -0.119318634 -0.07189141 0.0048200125 -0.052277822 0.27549604 0.1284756 -0.25902745 -0.18631631 -0.5929749 0.7555509 -0.20849915 -0.07867753 0.1545398 -0.06703983 -0.04855959 0.021715008 -0.505623 -0.70765376 -0.19954701 0.22247781 0.32731822 0.020966388 0.32639998 -0.179612 0.2777368 -0.055924196 -0.08753562 -0.041792475 0.53782874 -0.11652364 -0.4546228 0.07191379 -0.59825355 0.21944638 -0.004081513 -0.31722125 0.11004738 0.20887862 0.10155968 0.29758772 1.2387222 -0.30598775 -0.066184476 -0.60181975 -0.2421813 0.22976017 0.46250612 -0.2751065 0.008425447
internet -0.4030411 -0.19624552 -0.007616449 -0.27905387 0.37474412 0.42303494 0.052775923 -0.33986342 -0.17504533 -0.3341639 -0.35939398 0.2663384 0.49897304 0.04927353 -0.09471721 -0.13938756 0.6860555 -0.01135467 0.011330546 -0.06153683 0.036058735 0.20026025 0.25645414 0.02567655 0.21759866 0.5071325 0.002410519 -0.066175155 -0.061663445 0.11546534 -0.117278546 -0.07204223 0.0293663 0.30408695 0.24323748 -0.2224844 0.08371367 -0.1566224 -0.4197423 0.41619763 0.77108246 -0.102961235 0.43667817 -0.28903347 0.53680223 0.5656802 0.34167367 0.27521366 -0.25262594 -0.051886734 0.07109971 -0.2078873 0.010126722 -0.57449645 -0.11362832 0.21221659 0.4309906 -0.47146553 0.8034711 -0.56736135 -0.11465088 -0.097420424 -0.114421315 0.08796474 0.35945743 -0.07430945 -0.052949 -0.42171875 -0.038898192 -0.64698756 0.1774539 0.06509861 -0.20156977 0.41040474 -0.27794993 0.73947686 -0.04244338 0.04545399 -0.40299457 0.5746505 -0.17152797 -0.36310622 0.13355026 -0.18192539 0.030129671 -0.0063199475 -0.2445597 -0.028634816 -0.554026 0.5815501 0.0010808713 0.18141466 -0.050675128 0.3310197 0.18642186 0.5012381 -0.22813807 0.22125219 -0.3875787 0.021368803
galaxy -0.5388953 -0.089591965 0.47549754 -1.0052836 0.247014 0.17532177 -0.13733757 0.029988274 -0.14009075 0.019027224 -0.63390213 -0.25846195 -0.14652506 -0.3413659 -0.09221748 0.41626638 0.9914014 0.49076852 0.7033374 -0.35659587 0.31239903 0.67573214 0.14973296 0.30014482 0.1611073 0.54158545 0.16308342 0.5077321 -0.48124862 -0.42847958 0.2698348 0.43886355 -0.7869764 -0.38854766 -0.38069224 0.10617145 0.43553635 -0.23372608 0.43313605 -0.43041712 0.24780309 0.55118245 0.31491846 -0.15343212 -0.7516 -0.12958229 -0.43186906 -0.29475752 -0.45784345 0.0459181 -0.047537312 0.25864518 0.09751749 -0.20835723 -0.16796537 0.6912308 0.10862483 0.45796087 0.31128666 -0.1330041 0.462678 -0.3984137 0.040732764 0.30995202 0.41964066 0.22606832 -0.37731284 0.74450654 -0.93655634 -0.14098144 0.42484483 -0.24455205 0.74520224 0.32395864 0.1020884 0.5446665 0.116585426 -0.64828086 -0.16957416 0.64835405 0.6714595 -0.10680128 -0.09133489 -0.62581253 0.014793232 -0.05944303 0.32917023 0.06668118 0.4175167 -0.15769924 0.21679674 0.6282616 0.09078751 -0.34492743 -0.32500648 0.98138213 -0.20666273 -0.8302367 0.41213995 0.03322752
insurance -0.118148774 0.35424826 0.33338207 -0.45965752 0.53608394 -0.6239605 -0.064291365 -0.64883614 -0.35763016 -0.23883128 0.007890789 -0.10164307 -0.06548482 -0.13876614 -0.34094214 -0.1938895 -0.3062564 0.34131467 -0.00707066 0.51474553 0.22832693 -0.0520271 0.5047565 -0.3008084 0.1800518 0.02363308 -0.4166855 0.010623241 -0.6180043 0.016758662 -0.029042495 -0.32080564 -0.6382693 0.38699326 0.55928725 -0.32516754 -0.10069147 -0.20125262 0.22091138 -0.114460975 -0.023793548 0.26028737 0.1548285 -0.12560216 0.30209425 0.23739351 0.40577382 -0.08981876 -0.44784886 -0.54472095 -0.35556152 -0.09875908 0.59539896 -0.5227638 0.24272765 0.011955017 0.6917964 -0.28745326 0.3443732 -0.48406217 0.629326 0.02048508 -0.28257477 -0.10780512 0.58110666 0.083418705 -0.2833363 -0.28121614 0.29390544 -0.73392475 -0.03413827 -0.04345307 -0.65153736 -0.19364527 -0.49517462 0.08470622 0.63932425 -0.11231852 -0.018057417 0.19515613 -0.35547617 -0.03477792 0.1865115 -0.5740061 0.1524262 0.052651715 -0.34268755 0.68364084 0.07661262 0.69059545 -0.040780492 0.5969902 -0.81711715 -0.10281043 -0.31367198 0.32540208 -0.023284066 -0.042144462 -0.3937826 0.43427235
sex -0.44052908 -0.091969274 -0.07852699 -0.24703306 -0.17375611 -0.22839437 -0.27064857 -0.14415565 -0.11571409 -0.94896376 0.05310938 -0.11386912 -0.3858322 -0.23522443 0.101065435 0.022966433 0.25525928 -0.027362572 0.22843927 -0.51330906 0.11262557 0.008818835 -0.10962246 0.3136328 0.07527937 0.9723708 -0.058906138 0.08435327 -0.13688943 -0.5209889 -0.23770967 -0.115660675 -0.35542408 0.23927681 0.11204994 -0.38476142 0.40972066 9.904457E-4 0.20276216 -0.3728642 0.851304 0.268572 0.6162497 0.09003228 -0.25609744 -0.21478477 0.58246905 0.36581406 0.20843187 0.16406414 0.10131886 -0.5081173 -0.59775853 -0.50635874 0.102605924 0.47231326 -0.018628316 0.16883399 0.84532636 0.06149023 -0.16617152 -0.41051543 0.3762098 0.035361737 0.771272 -0.3307245 0.055802487 -0.073797874 -0.15617372 -0.46214882 -0.11779798 0.12646666 -0.42056727 0.41457376 -0.40952963 0.44327047 0.4422639 -0.80888957 -0.34502855 0.3462741 -0.36799413 -0.23812175 -0.1765097 -0.19786148 0.06421752 -0.011697355 -0.027135376 -0.336455 -0.01349218 0.09742161 -0.35023907 0.40434277 -0.518773 0.47981292 -0.2391369 -0.09702356 -0.09706435 -0.22130048 -0.43668097 0.37258092
evidence -0.54521585 0.14433599 0.6736729 -0.36456487 0.08205894 -0.26472273 -0.11829489 -0.6046795 -0.38029203 0.1819969 -0.016744856 -0.2534894 -0.045181062 0.15671907 -0.08516261 0.2344448 -0.01641233 -0.3570574 0.14345995 0.04134942 0.068302535 -0.027862966 -0.2383066 -0.007958022 -0.07580816 0.1448971 -0.17632203 0.33352053 0.7003429 -0.3735342 -0.22051547 -0.23942359 -0.3501316 0.011892912 0.058565762 -0.5325749 -0.15948737 -0.35317117 0.079044074 -0.044130076 0.49668568 0.0995016 0.39694706 -0.12947765 -0.43590093 -0.09401804 0.21429594 0.4074526 0.09875346 -0.005533233 0.22642879 -0.17438687 -0.23716268 -0.2723328 0.06919888 0.7946517 -0.18390466 0.051796604 0.7117193 -0.17697364 -0.27188608 0.42629454 -0.2928319 -0.3401044 0.45004067 -0.03736642 -0.23011717 0.14275688 -0.15641738 -0.28187606 0.17602529 0.3717662 -0.26429743 0.6680531 -0.09174718 0.59343535 -0.13791327 0.06374183 -0.13126089 -0.058396313 -0.39718375 -0.14778402 0.12454483 -0.117663816 0.4720934 -0.05372129 -0.2370854 0.45352864 0.14973493 0.024643442 -0.21556196 0.635241 -0.2704621 0.30442882 -0.49362054 -0.038465023 0.19799288 -0.55382115 0.2698555 0.81493604
landscape -0.9199808 -0.27738544 0.78995174 -0.59625214 0.19075273 1.0558501 -0.049171 -0.043244936 -0.26140568 -0.04411053 -0.0888751 -0.13461085 0.04426513 0.3009621 -0.28870946 -0.09496368 0.274368 0.20395407 -0.09783743 0.24606307 0.8025026 0.014742537 0.26259336 0.32642043 -0.52717465 0.4454812 -0.36029923 0.3834788 -0.059493378 -0.21446447 0.104170114 0.11293387 -0.16861445 -0.1706472 -0.260595 0.17479655 0.39359567 -0.14755006 0.100245036 0.019268744 0.10658273 -0.60769385 0.5497464 -0.33311322 0.026286133 0.04793923 0.0030701717 -0.012411646 0.38508955 0.32537082 0.36101627 -0.575591 0.30447382 -0.11677319 -0.27847633 0.08374634 0.4169253 -0.23719142 0.49753803 -0.4502711 0.36195993 0.31325266 -0.303277 -0.43548447 0.040969133 0.06663227 -0.071856014 0.06540035 0.05267884 -0.10291406 0.01486833 -0.17906894 -0.12751019 0.09609444 0.18169113 0.18886143 -0.07745907 -0.4428764 -0.013585957 0.42610186 0.08103921 -0.2510004 0.2098991 -0.054909233 -0.044011913 0.29055777 -0.031595763 0.12471611 -0.09920275 0.40664265 0.08833793 0.87724346 -0.5582332 -0.17984746 -0.4734154 -0.05963213 0.18960816 0.12875439 0.25314286 -0.064210586
lad -0.7431833 0.32029027 0.3887684 -0.2457251 0.057099134 0.23639157 -0.33789003 -0.71296966 -0.3209954 -0.2307158 -0.31143972 0.295254 -0.44103703 -0.43481967 -0.6947698 0.038717847 0.33521035 -0.37662646 0.20061389 -0.16220981 0.7424772 0.3849063 0.18118283 0.469307 -0.57486105 0.43559605 -0.3369084 0.39322916 -0.434914 -0.04856563 -0.35468188 0.22676952 0.07261389 0.009566487 -0.16565284 -0.5570527 0.3804634 -0.36291623 -0.14950466 -0.7289258 0.9295354 -0.11123111 -0.794989 -0.24151132 -0.43940175 -0.5916944 -0.06378509 -0.0837342 0.1923539 0.12105513 -0.26360288 -0.73381674 -0.8125741 0.05762048 -0.18166515 -0.24563348 -0.45124486 0.07036139 0.75444 -0.07205028 -0.13990843 -0.2033559 -0.16058886 -0.42950097 -0.46855837 0.10028817 -0.0990854 0.039410308 -0.32525375 -0.088286504 0.112425864 0.45386973 0.092885114 -0.2455876 0.109835155 0.7849143 0.0357777 -0.8707107 0.62215906 0.49375498 -0.26710165 0.031930156 0.55585897 -0.37111148 0.028969266 -0.57104826 -0.32510173 -0.14981803 0.07458993 0.044558335 -0.1539048 -0.08399984 -0.036958244 0.3917531 -0.29028824 0.2020137 -0.40296242 0.14317809 0.51572555 0.1943898
asylum -0.9777842 0.038988322 0.046714384 0.0691298 0.6362359 0.13470964 -0.19872186 0.1563701 -0.6356248 -0.6968886 -0.36983898 -0.24232244 -0.06516984 0.2726171 -0.41638836 0.98594975 -0.25625813 -0.42970458 -0.3043275 0.33624393 0.19836564 0.17451133 0.2391931 -0.51096267 -0.06094596 -0.050148726 0.2121031 -0.4165119 -0.26999003 -0.38060296 -0.21099912 -0.41465923 -0.42205673 -0.35943723 0.16453911 -0.9660645 -0.09904975 0.46508482 0.26126745 0.19321276 0.9684792 -0.08259225 0.23191416 -0.19646192 -0.0020741045 0.5929519 0.30357316 -0.60345805 0.1320631 -0.43534276 0.23540929 -0.5148825 -0.19354272 0.32694176 0.017031895 0.6426734 0.051968332 -0.2875469 0.8867776 -0.5830962 0.40396157 -0.30184 0.8909768 0.2723206 0.76103365 0.08894726 -0.29396245 0.19731767 -0.2236524 0.4062091 -0.14755271 0.31629997 -0.05661001 0.17712484 -0.639281 0.51894605 0.21663117 -0.47524893 -0.22839005 0.1932382 -0.04403158 -0.32736218 0.039722353 -0.37440103 0.25303093 -0.31369618 -0.133647 -0.110385776 0.28576344 0.25078973 0.03412122 -0.5144148 -0.09425601 0.8999921 -0.84707856 -0.4141385 0.27735677 -0.8173588 -0.24616654 0.46225378
area -0.763845 0.18745379 0.5989554 -0.549001 0.28644478 0.6048384 0.24632318 -0.34280568 -0.28234383 0.09691645 0.1343545 -0.4667472 -0.18268676 0.2529476 -0.028824998 -0.060714807 -0.22842467 0.27959624 -0.046005562 -0.15689762 0.17953022 0.75101644 0.207867 0.10882653 -0.082871154 0.31801406 -0.16998158 0.1179963 0.05757615 -0.058822975 -0.4839024 0.06476036 0.09880001 0.026462037 0.36156058 0.30258635 0.009246091 -0.05903662 -0.01337977 -0.065234624 0.29279286 -0.27146378 0.17345081 -0.45900574 0.005192101 -0.2300076 -0.12728338 0.14125594 0.09657383 -0.29095298 0.45646068 -0.27331436 -0.25755548 -0.109650806 -0.33917043 0.36974648 -0.28768516 0.3478742 0.28530148 -0.9108786 0.5457374 0.30855215 0.1286781 0.037282526 -0.07278639 0.36929765 -0.12403339 0.06546908 -0.03299523 -0.17334749 -0.37539655 -0.030209478 0.041854084 -0.11583136 0.017170949 0.067266 0.20153137 -0.087048195 -0.1142826 0.46009448 -0.28157386 -0.022558551 0.14847621 0.17463301 0.3101539 0.030073008 0.36511037 -0.30304626 0.108568616 0.2014244 0.09062638 0.44888064 -0.20513958 0.4311523 -0.28190693 0.3218843 -0.07109149 0.020616088 0.26484558 0.19446805
disability -0.74531144 0.49859723 0.05140301 -0.115792826 0.48830053 -0.5279285 -0.6136982 -0.3543638 -0.52798486 -0.30994993 0.25946692 -0.2451372 -0.39077437 -0.09080805 -0.45304283 -0.17496943 -0.4901147 0.6531233 -0.3075765 -0.26075444 0.3281173 0.1798605 0.23813729 -0.13283812 0.38914657 0.32090446 -0.056357995 0.3156841 -0.990193 0.42176306 -0.10286397 -0.55342484 -0.7095914 0.079175025 0.43687662 -0.34188876 0.13279043 -0.091727525 0.19196217 -0.4928373 0.89911854 0.09713052 -0.019931717 -0.10740518 -0.08821308 0.21797597 0.5501149 -0.37625208 -0.22528452 0.091132805 -0.2766505 -0.26691183 0.067266636 -0.59002364 0.43493035 0.39797592 0.49763367 -0.056886707 -0.095122375 -0.9320947 0.4674672 0.2776393 0.4491229 -0.053577427 0.71119183 -0.46480837 -0.08855304 -0.09971135 0.15817235 -0.14622709 -0.22560345 -0.23590353 0.031349275 0.29891843 -0.08029483 0.13951635 0.3480668 -0.032910988 -0.17956185 0.30917406 -0.119839385 -0.30523223 0.15073144 -0.34915632 0.043625657 0.070976175 0.02298965 0.3391938 -0.46283463 -0.030540155 -0.12427057 -0.03359679 -0.74123627 0.82065815 -0.47931734 0.04548218 -0.45092338 -0.08959858 -0.41884387 0.063848205
experience -0.46098346 0.275147 0.48104241 -0.10736428 0.15398014 0.54315627 -0.1125911 -0.17496379 0.017821236 0.06557833 0.042678498 0.09080466 -0.24386108 -0.4699675 -0.46635857 -0.14207128 0.05911739 0.11290553 0.06482457 -0.21392402 -0.04946791 0.10623063 -0.05538286 -0.60076004 0.37290466 0.60500926 0.12310039 0.62534416 0.12313196 -0.14242335 -0.086715855 -0.05041576 0.054921977 0.12483396 0.14467968 -0.41066515 0.3190429 -0.17738475 0.1977945 -0.26373395 0.04060195 0.23429902 -0.13292815 -0.47675613 -0.04940752 -0.38168296 0.47065896 0.27842435 -0.5663313 0.04990924 -0.068043336 -0.7340894 0.341482 0.12701283 0.026759889 -0.11407775 0.55064267 -0.052816268 0.2853172 -0.75570625 0.093089186 0.4669055 -0.035089914 -0.3882885 -0.081457324 -0.043779276 -0.46712124 -0.056389336 -0.096512645 -0.1965901 -0.045775473 0.3423363 -0.09694133 0.06948786 -0.043953504 0.39049202 -0.34733075 -0.61923826 0.07331416 0.65419173 -0.080950126 -0.026417302 0.046780303 -0.4762031 -0.43635324 -0.2538104 -0.42286733 0.42161226 -0.2606381 0.078532204 -0.041742418 0.41045415 -0.48949328 0.37697148 -0.015522268 0.107951805 0.3650398 0.14471129 -0.14389983 -0.040276766
discipline -0.23340553 0.16236958 0.45082867 0.380457 0.4878685 0.034367535 -0.9178649 -0.5788341 -0.20208143 -0.8080443 0.20020805 0.62398624 -0.009712294 -0.8782578 -0.1373869 0.033121664 0.09855652 0.24525142 0.058853615 -0.101636074 -0.17714731 0.402389 -0.25556323 -0.31166127 0.4125872 0.287308 -0.1344604 0.15836076 -0.1818266 0.0018831299 0.039820608 -0.21549791 0.4842746 0.2061155 0.0013370351 -0.043393843 0.31865507 0.08044967 -0.2429288 -0.84342426 0.023899952 -0.0992689 0.102976635 0.12424214 -0.26534194 0.071337976 0.52552056 0.1625469 -0.22536433 -0.24105032 -0.018558761 -0.55105186 -0.35556757 -0.2475946 -0.27545553 0.21821259 -0.06296927 -5.9886975E-4 0.3531894 -0.4373829 0.05340126 0.14395621 -0.2931741 -0.10372005 0.5010012 -0.21707264 -0.23549749 -0.019396825 -0.0065624677 0.1666351 -0.09235329 -0.20718743 -0.14951377 0.060270883 0.14489083 0.35803378 0.030515976 -0.9135392 0.20603171 0.32382154 -0.104825094 -0.019103391 0.10349953 -0.73657364 0.3037185 0.40105858 -0.11404735 0.034901112 0.23798372 0.27157992 0.2185683 0.5132975 -0.3670792 0.6332889 -0.59043974 -0.22185354 0.06901528 -0.2889796 0.17070904 0.13160996
activity -0.66683656 -0.25269055 0.5081365 -0.49173155 -0.004013455 0.37087205 0.26634017 -0.52907205 0.005560921 0.038611088 0.22004426 0.06472818 0.28031147 0.10897227 -0.16268975 -0.23214434 -0.69494784 0.42339888 -0.013977111 -0.0054691057 0.11402102 1.2209893 -0.09195441 -0.50973094 -0.10003157 0.19512028 0.08597669 -0.071130164 0.3815788 -0.128948 0.20860997 0.0013018895 -0.2653177 0.060218785 0.5732979 -0.027674317 -0.06675507 -0.072338164 0.113063246 0.53017753 0.49820226 -0.0120018935 0.49741963 -0.43817183 0.20934087 -0.012019623 0.7938721 0.5168579 0.0023986048 0.39000782 0.155332 -0.15916598 -0.26393768 -0.78998935 -0.25576392 0.36811373 0.55011016 0.07946913 0.29764697 -0.29096386 -0.18430613 0.2173628 0.2708655 0.03557782 -0.13070615 0.16686188 -0.21113494 -0.09066385 0.18584125 -0.37028205 -0.17121114 0.13951294 -0.19300827 0.2256288 0.3460971 0.5395218 0.15406227 0.092737906 -0.2084705 0.25418514 -0.0021314684 -0.067308955 0.049699046 -0.5535383 0.39792523 0.62977046 -0.2567783 0.040224105 -0.26061115 0.16862985 -0.09130422 0.47290826 -0.80291706 0.34419727 -0.067732975 0.048755642 -0.1256059 -0.1363563 0.5637803 0.010859718
quarrel -0.41539803 0.18572576 0.049837504 -0.38832754 0.08044313 -0.2934092 -0.36968717 -0.6387787 0.40195155 -0.26749113 -0.0722871 0.10057193 -0.21040775 -0.049918357 -0.335226 -0.013165734 -0.12406368 -0.27771178 -0.0727189 0.32904828 0.25707352 0.06597297 0.18132031 0.49619132 -0.08314981 0.19115157 -0.023354178 -0.31893188 0.12680745 -0.45671543 -0.51392126 0.78166133 0.49413612 0.06844535 -0.26458153 0.13720004 -0.11127599 0.041087423 0.0024039291 0.63671654 0.78201723 -0.22998773 -0.02550729 0.3628653 0.4188107 -0.07424049 0.017256647 0.31683114 -0.06103467 0.1043434 -0.359752 -0.37553355 -0.27764437 0.617549 -0.352773 0.27487296 0.25332737 -0.14239524 0.7454584 -0.50798243 0.5616151 0.08680462 0.35936132 -0.45066565 -0.06269059 -0.24965465 -0.062307876 -0.286713 0.027045473 -0.16411091 -0.020916289 0.11301253 -0.30094254 0.2323197 -0.37814438 0.13982737 0.32359308 -0.238768 -0.093056366 0.11614521 -0.61842877 0.053652503 -0.37782288 -0.38015005 0.43657047 0.14465493 -0.55202556 0.26653245 -0.208721 -0.12003836 -0.16689652 -0.32283285 -0.34285378 0.2960667 -1.0191027 0.43514144 -0.008204163 0.04842751 -0.06872758 0.5448895
population -0.68581426 0.2177694 0.2965549 -0.51238596 0.110418305 0.4187689 -0.41446644 -0.5885748 -0.42061248 -0.5509855 -0.3111112 0.046430282 -0.039300162 -0.12775508 -0.07443716 -0.27828687 -1.0644177 0.13078922 0.045096178 0.3271316 0.175003 0.70198756 -0.17761925 0.34487596 -0.5258047 -0.07428057 -0.16585006 0.08244016 0.015317981 7.489248E-4 -0.23439908 -0.42916536 -0.4106748 0.29519603 0.072614715 -0.036965188 0.054555096 0.06684884 0.11587555 0.006333831 0.1259861 -0.2915688 0.270463 -0.34200436 -0.49086893 0.4952887 0.50608414 0.053941723 -0.13610812 -0.12763128 -0.1609882 0.21434909 0.3054241 -0.056964975 -0.3707033 0.35448128 0.31619093 0.5871597 0.7592626 -0.22937523 0.13064617 0.016626522 0.30280557 0.35278848 0.33729154 0.30893657 0.15167414 -0.19457722 0.42631203 -0.019813746 -0.4484266 0.22466706 -0.23212023 0.076903164 -0.1539403 0.26926968 0.18728858 -0.24999662 -0.5860232 0.84116346 0.080102734 -0.6198886 -0.044901 -0.38949192 -0.07918202 -0.636589 -0.050240606 -0.47989047 -0.350723 -0.21549608 0.35821453 -0.045675907 -0.48557198 0.2827712 -0.22293757 0.24879129 -0.15917253 0.25623992 0.10248814 0.29259777
music -0.7950869 0.3929318 0.20712939 0.23424368 0.25871065 0.7001467 -0.029280655 -0.05163054 -0.21642938 -0.26536164 -0.27110338 0.14189053 0.20386456 0.35156995 -0.07040978 0.171669 0.54272455 -0.13405395 -0.058735553 -0.29756418 0.5861252 0.2194208 0.3425641 0.41831484 -0.2871164 0.52351934 0.0662256 0.4787261 0.204847 0.44555005 -0.061719492 0.3928489 0.19153874 0.041461293 -0.046410076 -0.19693248 0.50387055 -0.41973385 -0.3023436 0.104154505 0.2525535 -0.46066645 0.089168236 -0.5784291 -0.18822315 -0.23697892 0.21568058 -0.101874925 -0.009638252 0.17234124 0.17328271 -0.57692766 -0.2385883 -0.45503196 -0.43724653 -0.08301756 0.9088806 -0.05805684 0.5553435 -0.48256224 0.091593415 -0.34275573 -0.29381153 0.18854281 0.18859658 -0.6159467 -0.13622436 -0.17670843 -0.64115566 -0.21186712 0.72324705 0.01375003 -0.09328576 -0.009859465 0.16537446 0.13620275 0.25691754 -0.7724991 -0.18277998 0.8242905 -0.30001426 -0.23482688 0.20302576 0.23721467 -0.25847962 -0.16786338 -0.38435444 0.36388338 0.36275396 -0.04624207 -0.16156387 0.24635054 -0.28485462 0.5289512 0.036669046 -0.29768103 -0.41288555 0.43226275 -0.29672515 0.08633446
